{"learner":{"attributes":{"best_iteration":"10","best_score":"0.6863588294303329"},"feature_names":[],"feature_types":[],"gradient_booster":{"model":{"cats":{"enc":[],"feature_segments":[],"sorted_idx":[]},"gbtree_model_param":{"num_parallel_tree":"1","num_trees":"31"},"iteration_indptr":[0,1,2,3,4,5,6,7,8,9,10,11,12,13,14,15,16,17,18,19,20,21,22,23,24,25,26,27,28,29,30,31],"tree_info":[0,0,0,0,0,0,0,0,0,0,0,0,0,0,0,0,0,0,0,0,0,0,0,0,0,0,0,0,0,0,0],"trees":[{"base_weights":[-5.533943E-4,2.9486382E-1,-8.8874114E-1,5.5278265E-1,-1.1355945E-1,-6.1220706E-1,-1.2847861E0,8.1864136E-1,4.0227175E-1,2.790843E-4,-3.045008E-1,-3.8654277E-1,-7.634305E-1,-1.1453803E0,-1.8726512E0,8.7066805E-1,7.100244E-1,4.8133147E-1,2.8116453E-1,1.0600551E-1,-9.643984E-2,-1.8262705E-1,-4.754347E-1,-2.6760814E-1,-6.094097E-1,-5.586416E-1,-1.034274E0,-8.618278E-1,-1.3910253E0,-1.6688287E0,-2.2172973E0,6.4581215E-1,8.951378E-1,5.597684E-1,7.9564834E-1,5.3513706E-1,3.6341712E-1,3.8975587E-1,1.5260209E-1,1.8446473E-2,2.1116361E-1,-1.6392744E-1,9.824174E-2,-2.4343197E-1,-1.9686535E-2,-5.6885594E-1,-2.0996983E-1,7.932136E-2,-3.7952146E-1,-4.4201472E-1,-8.949484E-1,-4.5163321E-1,-6.621078E-1,-8.6313605E-1,-1.3325645E0,-6.9772416E-1,-1.0634493E0,-1.1302457E0,-1.7210329E0,-1.457888E0,-1.986853E0,-2.4903867E0,-1.8243281E0,4.6981167E-2,9.6973754E-2,9.0072654E-2,1.2233058E-2,1.1498738E-2,5.8482494E-2,3.3702362E-2,8.3465315E-2,6.627277E-2,5.134761E-2,-6.427499E-4,4.3748256E-2,4.305241E-2,8.3089154E-4,7.0753E-3,3.2655984E-2,3.3363167E-2,-1.7537419E-3,2.4277186E-2,-2.3210516E-2,-9.870421E-3,-4.427873E-2,-2.0591596E-3,3.227101E-2,-1.7554326E-2,-3.829152E-2,-5.0990105E-2,4.0379525E-3,-4.2052306E-2,-6.877134E-2,1.0423954E-2,-3.8344707E-2,1.3168558E-2,-4.91586E-2,-1.249457E-1,-3.3710606E-2,-1.9157877E-2,-7.268043E-2,-1.0179092E-1,2.2359919E-2,-5.686759E-2,-2.986208E-2,-6.953411E-2,3.1223653E-2,-8.891671E-2,-1.4795878E-3,-1.8921272E-1,-1.0664307E-1,-1.3009554E-1,-6.56091E-2,-3.8305435E-2,-1.1906167E-1,-1.08868435E-1,-1.7786162E-1,-1.59241E-1,-2.5265932E-1,-1.5116686E-1,-5.7734497E-2,-2.1725701E-1,-1.280614E-1,-2.705542E-1,-1.6014384E-1,-2.2945826E-1,-1.5566678E-1],"categories":[],"categories_nodes":[],"categories_segments":[],"categories_sizes":[],"default_left":[0,0,0,0,0,0,0,0,0,0,0,0,0,0,0,0,0,0,0,0,0,0,0,0,0,0,0,0,0,0,0,0,0,0,0,0,0,0,0,0,0,0,0,0,0,0,0,0,0,0,0,0,0,0,0,0,0,0,0,0,0,0,0,0,0,0,0,0,0,0,0,0,0,0,0,0,0,0,0,0,0,0,0,0,0,0,0,0,0,0,0,0,0,0,0,0,0,0,0,0,0,0,0,0,0,0,0,0,0,0,0,0,0,0,0,0,0,0,0,0,0,0,0,0,0,0,0],"id":0,"left_children":[1,3,5,7,9,11,13,15,17,19,21,23,25,27,29,31,33,35,37,39,41,43,45,47,49,51,53,55,57,59,61,63,65,67,69,71,73,75,77,79,81,83,85,87,89,91,93,95,97,99,101,103,105,107,109,111,113,115,117,119,121,123,125,-1,-1,-1,-1,-1,-1,-1,-1,-1,-1,-1,-1,-1,-1,-1,-1,-1,-1,-1,-1,-1,-1,-1,-1,-1,-1,-1,-1,-1,-1,-1,-1,-1,-1,-1,-1,-1,-1,-1,-1,-1,-1,-1,-1,-1,-1,-1,-1,-1,-1,-1,-1,-1,-1,-1,-1,-1,-1,-1,-1,-1,-1,-1,-1],"loss_changes":[2.675672E3,8.061536E2,2.7796313E2,1.8735938E2,6.440027E1,5.0915222E1,8.354065E1,8.957764E0,2.8559387E1,1.9000893E1,2.2966812E1,1.5850754E1,4.920221E1,5.7847412E1,1.02677E1,5.7018433E0,6.685089E0,1.1300568E1,1.6499367E1,8.169937E0,1.2765928E1,6.411808E0,1.1288124E1,1.5393856E1,9.615082E0,5.3834534E0,1.8516418E1,1.2364563E1,3.7004578E1,5.7565613E0,3.0601501E0,6.1352196E0,4.3242188E0,2.2124786E0,5.9917755E0,3.0922852E0,1.5639198E1,9.985504E0,7.7332144E0,5.5121474E0,5.70607E0,1.3069614E1,6.686651E0,4.3980846E0,5.235098E0,5.6991577E0,6.6530285E0,2.97477E0,1.0625E1,9.418547E0,1.0739315E1,4.4049873E0,8.597E0,5.45549E0,1.8623917E1,4.7040024E0,1.4758057E1,4.954773E0,1.647815E1,2.9776764E0,3.6030579E0,3.1384125E0,5.5513E-1,0E0,0E0,0E0,0E0,0E0,0E0,0E0,0E0,0E0,0E0,0E0,0E0,0E0,0E0,0E0,0E0,0E0,0E0,0E0,0E0,0E0,0E0,0E0,0E0,0E0,0E0,0E0,0E0,0E0,0E0,0E0,0E0,0E0,0E0,0E0,0E0,0E0,0E0,0E0,0E0,0E0,0E0,0E0,0E0,0E0,0E0,0E0,0E0,0E0,0E0,0E0,0E0,0E0,0E0,0E0,0E0,0E0,0E0,0E0,0E0,0E0,0E0,0E0,0E0],"parents":[2147483647,0,0,1,1,2,2,3,3,4,4,5,5,6,6,7,7,8,8,9,9,10,10,11,11,12,12,13,13,14,14,15,15,16,16,17,17,18,18,19,19,20,20,21,21,22,22,23,23,24,24,25,25,26,26,27,27,28,28,29,29,30,30,31,31,32,32,33,33,34,34,35,35,36,36,37,37,38,38,39,39,40,40,41,41,42,42,43,43,44,44,45,45,46,46,47,47,48,48,49,49,50,50,51,51,52,52,53,53,54,54,55,55,56,56,57,57,58,58,59,59,60,60,61,61,62,62],"right_children":[2,4,6,8,10,12,14,16,18,20,22,24,26,28,30,32,34,36,38,40,42,44,46,48,50,52,54,56,58,60,62,64,66,68,70,72,74,76,78,80,82,84,86,88,90,92,94,96,98,100,102,104,106,108,110,112,114,116,118,120,122,124,126,-1,-1,-1,-1,-1,-1,-1,-1,-1,-1,-1,-1,-1,-1,-1,-1,-1,-1,-1,-1,-1,-1,-1,-1,-1,-1,-1,-1,-1,-1,-1,-1,-1,-1,-1,-1,-1,-1,-1,-1,-1,-1,-1,-1,-1,-1,-1,-1,-1,-1,-1,-1,-1,-1,-1,-1,-1,-1,-1,-1,-1,-1,-1,-1],"split_conditions":[4.8558876E-2,-9.7353303E-1,5.233583E-1,-1.0264282E0,1.8788844E-1,-8.869038E-2,1.1646898E0,-2.7004172E-4,1E0,-3.4687778E-1,1E0,9.7519517E-1,1E0,6.551469E-2,3.9019418E-1,-5.7116246E-1,3.4505257E-1,1.8788844E-1,-8.869038E-2,-4.1378775E-1,4.1516446E-2,1.9328451E-1,4.1516446E-2,-7.6846594E-1,1E0,4.616378E-1,9.289907E-1,1E0,1E0,1E0,-5.655558E-1,2.0145013E0,1E0,-8.690919E-1,-5.3232133E-1,-8.1161505E-1,-7.1732384E-1,-2.5573698E-1,1.9328451E-1,-1.1512094E0,1.7109652E0,-4.845871E-1,6.0962224E-3,-5.1963013E-1,2.6994252E-1,5.2954465E-1,4.708335E-1,9.289907E-1,-7.316831E-1,-3.9214897E-1,-1.4457203E-1,-4.1378775E-1,1.2556609E0,1E0,-7.1732384E-1,-1.041508E0,-6.5482783E-1,1E0,1.1088747E0,3.0177385E-1,1E0,1.1415983E0,6.1442816E-1,4.6981167E-2,9.6973754E-2,9.0072654E-2,1.2233058E-2,1.1498738E-2,5.8482494E-2,3.3702362E-2,8.3465315E-2,6.627277E-2,5.134761E-2,-6.427499E-4,4.3748256E-2,4.305241E-2,8.3089154E-4,7.0753E-3,3.2655984E-2,3.3363167E-2,-1.7537419E-3,2.4277186E-2,-2.3210516E-2,-9.870421E-3,-4.427873E-2,-2.0591596E-3,3.227101E-2,-1.7554326E-2,-3.829152E-2,-5.0990105E-2,4.0379525E-3,-4.2052306E-2,-6.877134E-2,1.0423954E-2,-3.8344707E-2,1.3168558E-2,-4.91586E-2,-1.249457E-1,-3.3710606E-2,-1.9157877E-2,-7.268043E-2,-1.0179092E-1,2.2359919E-2,-5.686759E-2,-2.986208E-2,-6.953411E-2,3.1223653E-2,-8.891671E-2,-1.4795878E-3,-1.8921272E-1,-1.0664307E-1,-1.3009554E-1,-6.56091E-2,-3.8305435E-2,-1.1906167E-1,-1.08868435E-1,-1.7786162E-1,-1.59241E-1,-2.5265932E-1,-1.5116686E-1,-5.7734497E-2,-2.1725701E-1,-1.280614E-1,-2.705542E-1,-1.6014384E-1,-2.2945826E-1,-1.5566678E-1],"split_indices":[21,21,21,21,1,1,22,1,9,1,9,22,9,1,1,22,2,1,1,2,2,2,2,1,9,1,22,9,9,9,2,2,41,2,22,1,2,22,2,22,2,21,1,21,1,1,1,22,1,1,1,2,2,18,2,1,22,17,1,1,10,21,1,0,0,0,0,0,0,0,0,0,0,0,0,0,0,0,0,0,0,0,0,0,0,0,0,0,0,0,0,0,0,0,0,0,0,0,0,0,0,0,0,0,0,0,0,0,0,0,0,0,0,0,0,0,0,0,0,0,0,0,0,0,0,0,0],"split_type":[0,0,0,0,0,0,0,0,0,0,0,0,0,0,0,0,0,0,0,0,0,0,0,0,0,0,0,0,0,0,0,0,0,0,0,0,0,0,0,0,0,0,0,0,0,0,0,0,0,0,0,0,0,0,0,0,0,0,0,0,0,0,0,0,0,0,0,0,0,0,0,0,0,0,0,0,0,0,0,0,0,0,0,0,0,0,0,0,0,0,0,0,0,0,0,0,0,0,0,0,0,0,0,0,0,0,0,0,0,0,0,0,0,0,0,0,0,0,0,0,0,0,0,0,0,0,0],"sum_hessian":[1.0195469E4,7.6512725E3,2.5441965E3,4.689503E3,2.9617693E3,1.4996371E3,1.0445594E3,1.693575E3,2.9959282E3,1.8561426E3,1.1056268E3,6.0314526E2,8.964919E2,8.467178E2,1.9784167E2,1.1403433E3,5.532317E2,1.81083E3,1.1850981E3,8.8673224E2,9.694103E2,6.466453E2,4.5898154E2,3.947074E2,2.0843785E2,5.122413E2,3.8425064E2,3.9512567E2,4.515921E2,1.279906E2,6.985108E1,1.14605965E2,1.0257373E3,2.0355803E2,3.4967368E2,1.2410068E3,5.6982306E2,6.413472E2,5.437509E2,4.84496E2,4.0223624E2,7.19982E2,2.494283E2,4.7055368E2,1.7609164E2,3.386592E2,1.2032232E2,9.634151E1,2.9836588E2,1.3300984E2,7.542801E1,2.5444754E2,2.577937E2,2.4663983E2,1.3761081E2,2.2028883E2,1.7483684E2,2.547264E2,1.968657E2,8.030783E1,4.7682774E1,3.8062565E1,3.1788515E1,7.584628E1,3.875968E1,1.01820844E3,7.5288587E0,1.1153865E1,1.9240417E2,2.816351E1,3.2151016E2,1.7581279E2,1.0651941E3,9.522612E1,4.7459695E2,5.7930383E2,6.2043373E1,3.707266E2,1.7302432E2,4.879816E1,4.3569785E2,3.7588525E2,2.6351006E1,5.846019E2,1.3538004E2,1.6368297E2,8.574534E1,3.1802457E2,1.525291E2,1.8403877E1,1.5768776E2,1.5266852E2,1.8599069E2,4.294238E1,7.737994E1,8.895207E1,7.3894353E0,1.2548098E1,2.8581778E2,7.166358E1,6.1346256E1,6.8038574E1,7.3894353E0,1.4263005E2,1.118175E2,2.4956773E2,8.225975E0,2.392504E2,7.3894353E0,4.2384686E1,9.522612E1,1.2269251E1,2.0801958E2,2.816351E1,1.4667332E2,2.4189944E2,1.2826944E1,1.7232721E2,2.4538502E1,7.500974E1,5.2980857E0,3.6110638E1,1.1572135E1,2.900005E1,9.062515E0,8.7836685E0,2.3004847E1],"tree_param":{"num_deleted":"0","num_feature":"46","num_nodes":"127","size_leaf_vector":"1"}},{"base_weights":[5.274444E-3,5.206547E-1,-4.0791008E-1,7.815353E-1,3.755038E-1,-2.3963842E-1,-1.0794989E0,7.03809E-1,8.635649E-1,3.1750068E-1,5.2044034E-1,-1.0101366E-1,-4.980504E-1,-9.457663E-1,-1.4434961E0,4.58294E-1,7.284947E-1,8.16468E-1,9.982075E-2,2.3778601E-1,4.1933006E-1,4.607731E-1,6.127256E-1,-1.9011505E-1,3.6104817E-2,-6.3213223E-1,-3.3102918E-1,-5.3454804E-1,-1.0041922E0,-1.4759568E0,9.209308E-3,-2.6094435E-2,5.281851E-1,6.2031317E-1,7.8881556E-1,8.3793914E-1,5.735876E-1,2.612901E-1,-1.82546E-2,3.833845E-1,6.397107E-1,4.8489863E-1,2.130729E-1,5.581587E-1,7.98129E-1,-2.6427105E-1,-9.088382E-2,-5.9831064E-2,9.800317E-2,-3.3003312E-1,-6.703653E-1,-4.5556343E-1,-1.1594164E-1,-1.2462229E-1,-6.972503E-1,-1.2922429E0,-8.8839716E-1,-1.5383384E0,-7.4786115E-1,6.0884476E-2,3.1215692E-2,6.86278E-2,5.309348E-2,8.132767E-2,4.0027745E-2,7.9367824E-2,9.278975E-2,2.6396066E-2,8.4260516E-2,3.0199362E-2,9.868345E-3,-3.2547887E-2,7.3468345E-3,3.9514814E-2,3.5000094E-3,3.402738E-2,7.4224904E-2,5.0959256E-2,2.1860404E-2,-4.4586957E-3,3.2892205E-2,4.9511205E-2,7.172536E-2,5.9507944E-2,8.8032685E-2,-3.67759E-2,-9.394319E-3,-1.8779984E-2,3.3666983E-3,2.055813E-2,-1.194509E-2,-5.1736007E-3,1.8418018E-2,2.219356E-2,-4.3222535E-2,-7.8265294E-2,-4.874107E-2,4.5950986E-3,-4.973648E-2,-1.4827596E-2,3.635366E-2,-3.6311436E-2,3.2484405E-2,-7.957859E-2,1.0534699E-2,-1.2022866E-2,-1.3210951E-1,-1.04089715E-1,-7.602184E-2,-1.7237636E-1,-1.3123254E-1,-5.1722813E-2,-1.3773689E-1],"categories":[],"categories_nodes":[],"categories_segments":[],"categories_sizes":[],"default_left":[0,0,0,0,0,0,0,0,0,0,0,0,0,0,0,0,0,0,0,0,0,0,0,0,0,0,0,0,0,0,0,0,0,0,0,0,0,0,0,0,0,0,0,0,0,0,0,0,0,0,0,0,0,0,0,0,0,0,0,0,0,0,0,0,0,0,0,0,0,0,0,0,0,0,0,0,0,0,0,0,0,0,0,0,0,0,0,0,0,0,0,0,0,0,0,0,0,0,0,0,0,0,0,0,0,0,0,0,0,0,0,0,0],"id":1,"left_children":[1,3,5,7,9,11,13,15,17,19,21,23,25,27,29,31,33,35,-1,37,39,41,43,45,47,49,51,53,55,57,-1,-1,59,61,63,65,67,69,71,73,75,77,79,81,83,85,87,89,91,93,95,97,99,101,103,105,107,109,111,-1,-1,-1,-1,-1,-1,-1,-1,-1,-1,-1,-1,-1,-1,-1,-1,-1,-1,-1,-1,-1,-1,-1,-1,-1,-1,-1,-1,-1,-1,-1,-1,-1,-1,-1,-1,-1,-1,-1,-1,-1,-1,-1,-1,-1,-1,-1,-1,-1,-1,-1,-1,-1,-1],"loss_changes":[2.1791223E3,1.7213269E2,6.4160144E2,9.764893E0,2.4446259E1,1.6269128E2,5.401526E1,4.7617188E0,4.1763306E0,1.6893036E1,4.316498E0,3.6147167E1,3.5307007E1,1.952246E1,1.5278076E1,4.1345615E0,4.4848022E0,2.5890503E0,0E0,7.085022E0,7.0259705E0,2.9519424E0,2.8416748E0,1.3170998E1,6.9295654E0,9.92691E0,1.8920067E1,6.983137E0,2.3197693E1,1.2364075E1,0E0,0E0,1.078413E0,1.2720337E0,4.290558E0,1.4082947E0,4.0239563E0,7.102844E0,2.8378007E0,3.230606E0,3.6536522E0,2.947052E0,1.4223852E0,2.196228E0,6.704483E-1,1.804551E1,9.282066E0,7.2698727E0,9.159445E0,5.774622E0,1.5620728E1,9.419914E0,4.1014557E0,3.4770803E0,6.067932E0,6.843811E0,9.447845E0,9.184021E0,2.97929E0,0E0,0E0,0E0,0E0,0E0,0E0,0E0,0E0,0E0,0E0,0E0,0E0,0E0,0E0,0E0,0E0,0E0,0E0,0E0,0E0,0E0,0E0,0E0,0E0,0E0,0E0,0E0,0E0,0E0,0E0,0E0,0E0,0E0,0E0,0E0,0E0,0E0,0E0,0E0,0E0,0E0,0E0,0E0,0E0,0E0,0E0,0E0,0E0,0E0,0E0,0E0,0E0,0E0,0E0],"parents":[2147483647,0,0,1,1,2,2,3,3,4,4,5,5,6,6,7,7,8,8,9,9,10,10,11,11,12,12,13,13,14,14,15,15,16,16,17,17,19,19,20,20,21,21,22,22,23,23,24,24,25,25,26,26,27,27,28,28,29,29,32,32,33,33,34,34,35,35,36,36,37,37,38,38,39,39,40,40,41,41,42,42,43,43,44,44,45,45,46,46,47,47,48,48,49,49,50,50,51,51,52,52,53,53,54,54,55,55,56,56,57,57,58,58],"right_children":[2,4,6,8,10,12,14,16,18,20,22,24,26,28,30,32,34,36,-1,38,40,42,44,46,48,50,52,54,56,58,-1,-1,60,62,64,66,68,70,72,74,76,78,80,82,84,86,88,90,92,94,96,98,100,102,104,106,108,110,112,-1,-1,-1,-1,-1,-1,-1,-1,-1,-1,-1,-1,-1,-1,-1,-1,-1,-1,-1,-1,-1,-1,-1,-1,-1,-1,-1,-1,-1,-1,-1,-1,-1,-1,-1,-1,-1,-1,-1,-1,-1,-1,-1,-1,-1,-1,-1,-1,-1,-1,-1,-1,-1,-1],"split_conditions":[-9.7353303E-1,-1.023237E0,5.233583E-1,-9.6032815E-3,1.391133E-1,1E0,1.1316917E0,-5.3232133E-1,1.5591971E0,1E0,1.9328451E-1,-9.883323E-2,1E0,-2.5341263E-1,1.5221776E0,-7.531862E-1,3.4505257E-1,1E0,9.982075E-2,1E0,9.5212483E-1,1E0,1E0,1E0,1E0,-1.0336403E0,4.9883354E-2,-5.747263E-1,-4.260097E-1,1E0,9.209308E-3,-2.6094435E-2,-6.790912E-1,1E0,1.5275088E-1,6.893647E-1,-1.5208849E0,1E0,-6.34213E-1,1E0,-4.3344554E-1,-1.0027246E0,3.621882E-1,1.2556609E0,1E0,-2.6201966E-1,1E0,5.2683777E-3,-5.655558E-1,-1.02086E0,-4.1378775E-1,-1.0474769E0,1E0,-6.7882794E-1,7.5499636E-1,-9.316461E-1,1E0,1E0,1.1562603E0,6.0884476E-2,3.1215692E-2,6.86278E-2,5.309348E-2,8.132767E-2,4.0027745E-2,7.9367824E-2,9.278975E-2,2.6396066E-2,8.4260516E-2,3.0199362E-2,9.868345E-3,-3.2547887E-2,7.3468345E-3,3.9514814E-2,3.5000094E-3,3.402738E-2,7.4224904E-2,5.0959256E-2,2.1860404E-2,-4.4586957E-3,3.2892205E-2,4.9511205E-2,7.172536E-2,5.9507944E-2,8.8032685E-2,-3.67759E-2,-9.394319E-3,-1.8779984E-2,3.3666983E-3,2.055813E-2,-1.194509E-2,-5.1736007E-3,1.8418018E-2,2.219356E-2,-4.3222535E-2,-7.8265294E-2,-4.874107E-2,4.5950986E-3,-4.973648E-2,-1.4827596E-2,3.635366E-2,-3.6311436E-2,3.2484405E-2,-7.957859E-2,1.0534699E-2,-1.2022866E-2,-1.3210951E-1,-1.04089715E-1,-7.602184E-2,-1.7237636E-1,-1.3123254E-1,-5.1722813E-2,-1.3773689E-1],"split_indices":[21,21,21,0,0,26,21,22,2,5,2,0,5,22,0,0,2,16,0,11,2,19,31,20,5,22,0,0,0,31,0,0,22,20,22,0,21,10,0,14,0,21,0,2,5,2,5,0,2,2,2,22,11,0,21,0,5,5,21,0,0,0,0,0,0,0,0,0,0,0,0,0,0,0,0,0,0,0,0,0,0,0,0,0,0,0,0,0,0,0,0,0,0,0,0,0,0,0,0,0,0,0,0,0,0,0,0,0,0,0,0,0,0],"split_type":[0,0,0,0,0,0,0,0,0,0,0,0,0,0,0,0,0,0,0,0,0,0,0,0,0,0,0,0,0,0,0,0,0,0,0,0,0,0,0,0,0,0,0,0,0,0,0,0,0,0,0,0,0,0,0,0,0,0,0,0,0,0,0,0,0,0,0,0,0,0,0,0,0,0,0,0,0,0,0,0,0,0,0,0,0,0,0,0,0,0,0,0,0,0,0,0,0,0,0,0,0,0,0,0,0,0,0,0,0,0,0,0,0],"sum_hessian":[1.0231164E4,4.552457E3,5.678707E3,1.6258757E3,2.9265813E3,4.5420254E3,1.1366819E3,8.3975464E2,7.861211E2,2.0924001E3,8.34181E2,2.9570896E3,1.5849357E3,8.3390375E2,3.0277814E2,7.8507965E1,7.612467E2,5.876351E2,1.9848601E2,1.1755132E3,9.16887E2,5.1026273E2,3.239183E2,1.7921442E3,1.1649453E3,8.776157E2,7.0731995E2,1.0500406E2,7.2889966E2,2.9654828E2,6.229877E0,6.7111382E0,7.179683E1,2.7655212E2,4.8469458E2,5.376552E2,4.9979874E1,1.0766575E3,9.885582E1,7.9066406E2,1.2622294E2,4.6410242E2,4.6160297E1,2.5336096E2,7.055735E1,1.02471E3,7.6743414E2,4.5687344E2,7.080719E2,9.967376E1,7.7794196E2,4.472482E2,2.6007175E2,3.033683E1,7.466722E1,2.0608493E2,5.2281476E2,2.7212076E2,2.4427528E1,5.0953632E1,2.0843195E1,1.5527483E2,1.2127729E2,4.549587E2,2.973587E1,3.669383E2,1.7071689E2,2.4157215E1,2.582266E1,8.604208E2,2.1623665E2,2.2142256E1,7.671356E1,7.6470856E2,2.5955551E1,3.3299294E1,9.2923645E1,4.2388156E2,4.0220856E1,1.4508065E1,3.1652231E1,1.843989E2,6.896207E1,2.270637E1,4.785098E1,6.3670264E2,3.8800735E2,4.3131198E2,3.361222E2,8.335407E1,3.7351938E2,2.5879514E2,4.492768E2,1.5387863E1,8.42859E1,4.8004105E2,2.9790094E2,3.4402527E1,4.1284567E2,2.4428854E2,1.57832E1,1.9945591E1,1.0391241E1,6.651019E1,8.15703E0,5.0755706E0,2.0100935E2,2.3550414E2,2.873106E2,1.4584224E2,1.262785E2,1.921087E1,5.216657E0],"tree_param":{"num_deleted":"0","num_feature":"46","num_nodes":"113","size_leaf_vector":"1"}},{"base_weights":[8.2510775E-3,4.9155143E-1,-3.5571715E-1,7.43067E-1,3.55945E-1,-2.0971039E-1,-9.085644E-1,1.04986526E-1,7.560777E-1,4.4474947E-1,2.2262365E-1,-8.556541E-2,-4.317281E-1,-8.2211083E-1,-1.2531676E0,-5.712952E-2,2.6263943E-1,7.041073E-1,8.6983436E-1,1.9077651E-1,4.7117853E-1,2.6364634E-2,2.700055E-1,-7.240584E-4,-1.9982497E-1,-5.3342396E-1,-2.7226317E-1,-9.6020716E-1,-6.4419323E-1,-1.1092764E0,-1.4590789E0,4.9618907E-2,1.0189236E-1,6.5549445E-1,8.441743E-1,8.170488E-1,9.542314E-1,1.372096E-1,7.9090977E-1,4.4246057E-1,6.755062E-1,-2.1299705E-2,5.439991E-1,2.9032958E-1,1.0171537E-2,-5.9934657E-2,1.8499725E-1,-1.7243463E-1,-5.2439517E-1,-4.3919545E-1,-7.2834384E-1,-2.9323286E-1,3.7844267E-1,-4.9394003E-1,-1.0194625E0,-6.6137296E-1,4.080666E-2,-1.2244898E0,-5.834235E-1,-1.0240722E0,-1.6457365E0,-4.583923E-2,4.3859176E-2,4.3926075E-2,6.7167126E-2,8.903452E-2,3.655909E-2,8.417589E-2,5.0938316E-2,9.683945E-2,5.7511397E-2,3.0865509E-2,2.6982694E-4,4.117601E-2,1.0255758E-1,3.3191066E-2,4.7532856E-2,2.130665E-2,7.251399E-2,4.976696E-3,-3.182026E-2,7.6946034E-3,8.292638E-2,2.4522483E-2,3.9037585E-2,3.311688E-2,-1.6868731E-2,-3.2795142E-2,-3.5462491E-3,2.2893466E-2,-1.4175832E-2,-2.956847E-2,-1.0017855E-2,-4.675225E-2,-1.3066895E-1,-1.7285444E-2,-4.925038E-2,-5.504154E-2,-9.309437E-2,-4.0976625E-2,-2.2399582E-2,5.542917E-2,8.3994726E-4,-5.6242544E-2,-1.4885383E-3,-1.1668628E-1,-8.086814E-2,-1.4852677E-1,-6.369147E-2,-1.2683411E-1,-2.2079347E-2,-1.2146033E-1,2.0437319E-2,-1.3310257E-1,-3.4365278E-2,-1.7622575E-1,-1.02002494E-1],"categories":[],"categories_nodes":[],"categories_segments":[],"categories_sizes":[],"default_left":[0,0,0,0,0,0,0,0,0,0,0,0,0,0,0,0,0,0,0,0,0,0,0,0,0,0,0,0,0,0,0,0,0,0,0,0,0,0,0,0,0,0,0,0,0,0,0,0,0,0,0,0,0,0,0,0,0,0,0,0,0,0,0,0,0,0,0,0,0,0,0,0,0,0,0,0,0,0,0,0,0,0,0,0,0,0,0,0,0,0,0,0,0,0,0,0,0,0,0,0,0,0,0,0,0,0,0,0,0,0,0,0,0,0,0,0,0],"id":2,"left_children":[1,3,5,7,9,11,13,15,17,19,21,23,25,27,29,-1,31,33,35,37,39,41,43,45,47,49,51,53,55,57,59,-1,61,63,65,67,69,71,73,75,77,79,81,83,85,87,89,91,93,95,97,99,101,103,105,107,-1,109,111,113,115,-1,-1,-1,-1,-1,-1,-1,-1,-1,-1,-1,-1,-1,-1,-1,-1,-1,-1,-1,-1,-1,-1,-1,-1,-1,-1,-1,-1,-1,-1,-1,-1,-1,-1,-1,-1,-1,-1,-1,-1,-1,-1,-1,-1,-1,-1,-1,-1,-1,-1,-1,-1,-1,-1,-1,-1],"loss_changes":[1.7963104E3,1.4935486E2,4.700022E2,1.2670044E1,3.366754E1,1.2700749E2,3.521753E1,3.545774E0,8.284363E0,1.1393433E1,1.0614521E1,2.8669985E1,2.6658325E1,2.3350952E1,5.555023E0,0E0,9.4482505E-1,6.515869E0,1.3037415E0,5.1292386E0,8.789642E0,5.519533E0,4.8553543E0,1.868635E1,1.1113468E1,1.8197052E1,8.920868E0,1.4615326E1,8.031601E0,8.172913E0,6.1438446E0,0E0,3.4010572E0,2.4165344E0,5.5084076E0,1.8114471E0,3.773346E-1,3.4765608E0,7.46933E-1,4.78714E0,4.182762E0,4.34933E0,2.4490685E0,3.7544022E0,3.9471161E0,8.439425E0,5.9300632E0,1.0333607E1,3.7308445E0,9.600006E0,1.127626E1,4.9594727E0,1.3354056E0,2.0795736E0,1.4111633E1,7.5747223E0,0E0,4.9759216E0,1.4307037E1,6.142147E0,3.0015564E0,0E0,0E0,0E0,0E0,0E0,0E0,0E0,0E0,0E0,0E0,0E0,0E0,0E0,0E0,0E0,0E0,0E0,0E0,0E0,0E0,0E0,0E0,0E0,0E0,0E0,0E0,0E0,0E0,0E0,0E0,0E0,0E0,0E0,0E0,0E0,0E0,0E0,0E0,0E0,0E0,0E0,0E0,0E0,0E0,0E0,0E0,0E0,0E0,0E0,0E0,0E0,0E0,0E0,0E0,0E0,0E0],"parents":[2147483647,0,0,1,1,2,2,3,3,4,4,5,5,6,6,7,7,8,8,9,9,10,10,11,11,12,12,13,13,14,14,16,16,17,17,18,18,19,19,20,20,21,21,22,22,23,23,24,24,25,25,26,26,27,27,28,28,29,29,30,30,32,32,33,33,34,34,35,35,36,36,37,37,38,38,39,39,40,40,41,41,42,42,43,43,44,44,45,45,46,46,47,47,48,48,49,49,50,50,51,51,52,52,53,53,54,54,55,55,57,57,58,58,59,59,60,60],"right_children":[2,4,6,8,10,12,14,16,18,20,22,24,26,28,30,-1,32,34,36,38,40,42,44,46,48,50,52,54,56,58,60,-1,62,64,66,68,70,72,74,76,78,80,82,84,86,88,90,92,94,96,98,100,102,104,106,108,-1,110,112,114,116,-1,-1,-1,-1,-1,-1,-1,-1,-1,-1,-1,-1,-1,-1,-1,-1,-1,-1,-1,-1,-1,-1,-1,-1,-1,-1,-1,-1,-1,-1,-1,-1,-1,-1,-1,-1,-1,-1,-1,-1,-1,-1,-1,-1,-1,-1,-1,-1,-1,-1,-1,-1,-1,-1,-1,-1],"split_conditions":[-9.7353303E-1,-1.0264282E0,5.233583E-1,-7.531862E-1,1E0,-4.667196E-1,1.1646898E0,-7.0081216E-1,3.0270156E-1,-5.8751595E-1,-5.8751595E-1,1E0,-1.2479915E-1,1E0,1E0,-5.712952E-2,4.9682063E-1,1.5591971E0,1.1038929E0,1E0,1.1038929E0,1.2556609E0,1E0,3.0270156E-1,1E0,9.7519517E-1,2.1914022E0,-6.0167575E-1,1.2556609E0,3.9936733E-1,-4.1448417E-1,4.9618907E-2,1.2556609E0,-5.7116246E-1,9.9423654E-2,1E0,1.223243E0,-3.1154257E-1,1E0,-7.1732384E-1,-4.3344554E-1,1E0,-7.279044E-1,1.9328451E-1,-1.0076156E0,-6.713921E-1,1E0,-7.1732384E-1,1.1038929E0,-6.515406E-1,1E0,-7.1732384E-1,-1.1025161E-1,1E0,-2.4754982E-1,-7.279044E-1,4.080666E-2,6.485887E-1,1E0,-5.226755E-1,-1.1025161E-1,-4.583923E-2,4.3859176E-2,4.3926075E-2,6.7167126E-2,8.903452E-2,3.655909E-2,8.417589E-2,5.0938316E-2,9.683945E-2,5.7511397E-2,3.0865509E-2,2.6982694E-4,4.117601E-2,1.0255758E-1,3.3191066E-2,4.7532856E-2,2.130665E-2,7.251399E-2,4.976696E-3,-3.182026E-2,7.6946034E-3,8.292638E-2,2.4522483E-2,3.9037585E-2,3.311688E-2,-1.6868731E-2,-3.2795142E-2,-3.5462491E-3,2.2893466E-2,-1.4175832E-2,-2.956847E-2,-1.0017855E-2,-4.675225E-2,-1.3066895E-1,-1.7285444E-2,-4.925038E-2,-5.504154E-2,-9.309437E-2,-4.0976625E-2,-2.2399582E-2,5.542917E-2,8.3994726E-4,-5.6242544E-2,-1.4885383E-3,-1.1668628E-1,-8.086814E-2,-1.4852677E-1,-6.369147E-2,-1.2683411E-1,-2.2079347E-2,-1.2146033E-1,2.0437319E-2,-1.3310257E-1,-3.4365278E-2,-1.7622575E-1,-1.02002494E-1],"split_indices":[21,21,21,0,9,21,22,22,0,0,0,9,0,5,9,0,2,2,2,19,2,2,11,0,11,22,0,22,2,0,0,0,2,22,22,8,22,22,5,2,0,10,0,2,21,0,19,2,2,22,9,2,2,16,0,0,0,2,20,0,2,0,0,0,0,0,0,0,0,0,0,0,0,0,0,0,0,0,0,0,0,0,0,0,0,0,0,0,0,0,0,0,0,0,0,0,0,0,0,0,0,0,0,0,0,0,0,0,0,0,0,0,0,0,0,0,0],"split_type":[0,0,0,0,0,0,0,0,0,0,0,0,0,0,0,0,0,0,0,0,0,0,0,0,0,0,0,0,0,0,0,0,0,0,0,0,0,0,0,0,0,0,0,0,0,0,0,0,0,0,0,0,0,0,0,0,0,0,0,0,0,0,0,0,0,0,0,0,0,0,0,0,0,0,0,0,0,0,0,0,0,0,0,0,0,0,0,0,0,0,0,0,0,0,0,0,0,0,0,0,0,0,0,0,0,0,0,0,0,0,0,0,0,0,0,0,0],"sum_hessian":[1.0209771E4,4.385746E3,5.8240254E3,1.5347302E3,2.8510159E3,4.608343E3,1.2156825E3,3.0849558E1,1.5038806E3,1.7097959E3,1.14122E3,2.9565327E3,1.6518102E3,9.745695E2,2.4111293E2,5.336006E0,2.5513552E1,1.0372129E3,4.6666766E2,1.6193E2,1.547866E3,2.222405E2,9.189795E2,1.6972655E3,1.2592672E3,1.00716425E3,6.446459E2,5.462125E2,4.2835703E2,1.4569098E2,9.542194E1,9.550643E0,1.5962908E1,7.741944E2,2.6301852E2,2.936728E2,1.7299487E2,1.4978873E2,1.2141267E1,1.3598995E3,1.8796643E2,2.0437984E2,1.7860664E1,8.5220325E2,6.677627E1,1.2874768E3,4.097887E2,1.1626803E3,9.6586815E1,6.811396E2,3.2602466E2,6.250523E2,1.9593596E1,6.2640846E1,4.8357166E2,4.2184128E2,6.515731E0,1.1841738E2,2.7273603E1,3.0598442E1,6.48235E1,5.8563013E0,1.01066065E1,5.5846844E1,7.183476E2,2.3909201E2,2.3926523E1,2.7023312E2,2.343967E1,1.652665E2,7.7283754E0,6.5284164E1,8.450456E1,5.6948166E0,6.44645E0,3.1420023E2,1.0456993E3,1.8732018E1,1.6923442E2,1.655792E2,3.8800648E1,7.253887E0,1.0606778E1,5.897652E2,2.6243805E2,2.358922E1,4.3187046E1,1.06683914E2,1.1807928E3,3.6148123E2,4.8307457E1,4.2856607E2,7.3411426E2,9.153021E1,5.0566034E0,1.1430208E2,5.668375E2,1.7556004E2,1.5046461E2,2.3112526E2,3.93927E2,1.2944364E1,6.649232E0,5.465357E1,7.9872794E0,2.81901E2,2.0167064E2,1.0439899E1,4.114014E2,1.13207695E2,5.2096825E0,1.4841153E1,1.2432449E1,2.0427105E1,1.0171337E1,5.3115788E1,1.1707711E1],"tree_param":{"num_deleted":"0","num_feature":"46","num_nodes":"117","size_leaf_vector":"1"}},{"base_weights":[2.4144114E-3,1.5229376E-1,-3.4443912E-1,4.7128066E-2,6.6719985E-1,-4.477914E-1,2.734716E-1,-1.298627E-1,3.1610653E-1,1.1807755E-1,7.066734E-1,-6.144806E-1,-1.4748897E-1,-2.2938971E-1,3.4265926E-1,4.7194026E-2,-3.0042022E-1,3.749639E-1,1.4757898E-1,-5.16335E-1,4.456214E-1,7.622804E-1,4.7460225E-1,-6.730028E-1,-6.0705878E-2,-3.46274E-1,-1.951453E-4,-3.9861095E-1,1.65689E-1,-2.4520321E-1,3.7550536E-1,-2.7258983E-2,4.551399E-1,-1.9446653E-1,-5.463612E-1,2.7389133E-1,4.939868E-1,4.2175964E-2,3.599343E-1,1.5235114E-1,-1.0571085E0,5.470992E-1,-1.9441092E-3,7.0402235E-1,9.2098236E-1,2.4751352E-1,6.1364627E-1,-8.1145287E-1,-4.866641E-1,-3.0239382E-1,4.6263015E-1,-6.0040927E-1,-2.6082334E-1,6.906826E-2,-2.0438987E-1,2.5304988E-2,-6.382727E-1,6.5901704E-2,-4.5987062E-2,-5.74524E-1,3.259581E-2,4.086781E-1,-2.5934004E-3,-2.7892787E-2,4.932852E-3,3.4895148E-2,9.06233E-2,-2.1754216E-2,7.5764194E-2,-6.532281E-2,-3.7879433E-2,-9.6097746E-4,3.153782E-2,5.5545628E-2,3.9443713E-2,8.741382E-3,-2.6705584E-2,1.0000259E-2,4.8184656E-2,5.0053955E-4,3.3587925E-2,-5.985101E-2,-1.3900296E-1,6.388508E-2,6.0079964E-3,-5.306263E-3,7.185414E-2,9.421616E-2,2.9427756E-2,9.686305E-3,7.805883E-2,-5.089112E-2,6.606008E-2,-7.146623E-2,-1.0801108E-1,-3.4985784E-2,-7.0348375E-2,5.613526E-3,-5.0091296E-2,6.1814826E-2,-3.2927293E-2,-7.085423E-2,-3.9668735E-2,-2.058201E-2,-7.470948E-2,-1.6915964E-2,1.5732005E-2,4.3186586E-2,-2.6974306E-2,-1.04696095E-1,-2.4244962E-2,9.6379727E-4,-1.3141315E-1,-1.9314297E-2,4.391268E-2,-6.8643056E-2,2.1340238E-2],"categories":[],"categories_nodes":[],"categories_segments":[],"categories_sizes":[],"default_left":[0,0,0,0,0,0,0,0,0,0,0,0,0,0,0,0,0,0,0,0,0,0,0,0,0,0,0,0,0,0,0,0,0,0,0,0,0,0,0,0,0,0,0,0,0,0,0,0,0,0,0,0,0,0,0,0,0,0,0,0,0,0,0,0,0,0,0,0,0,0,0,0,0,0,0,0,0,0,0,0,0,0,0,0,0,0,0,0,0,0,0,0,0,0,0,0,0,0,0,0,0,0,0,0,0,0,0,0,0,0,0,0,0,0,0,0,0],"id":3,"left_children":[1,3,5,7,9,11,13,15,17,19,21,23,25,27,29,31,33,35,37,39,41,43,45,47,49,51,53,55,57,59,61,63,65,67,69,71,73,75,77,79,81,83,-1,85,87,89,91,93,95,97,99,101,103,105,107,-1,109,-1,-1,111,-1,113,115,-1,-1,-1,-1,-1,-1,-1,-1,-1,-1,-1,-1,-1,-1,-1,-1,-1,-1,-1,-1,-1,-1,-1,-1,-1,-1,-1,-1,-1,-1,-1,-1,-1,-1,-1,-1,-1,-1,-1,-1,-1,-1,-1,-1,-1,-1,-1,-1,-1,-1,-1,-1,-1,-1],"loss_changes":[5.2927136E2,3.8492816E2,1.9630276E2,2.811316E2,2.6049744E1,1.316654E2,1.5415062E1,1.07576584E2,2.3190765E1,1.7281061E1,1.4150757E1,5.4802795E1,2.7547209E1,3.6704566E0,7.5819054E0,5.3119198E1,4.7173126E1,2.0752304E1,1.3599657E1,1.0431782E1,2.589882E0,7.72406E0,6.795559E0,3.9088318E1,2.0737087E1,8.539005E0,7.6713324E0,6.1024537E0,5.51042E0,4.1619406E0,4.6137466E0,2.8532213E1,1.2613068E1,2.805904E1,9.525391E0,1.1073006E1,4.652466E0,5.725735E0,6.341406E0,3.653761E-1,1.5848408E0,1.9678574E0,0E0,7.3659363E0,2.9071808E0,6.7694E0,7.493717E0,2.2021423E1,1.9179413E1,7.9999104E0,6.5880756E0,1.9216461E0,7.9084873E0,8.541804E0,5.829084E0,0E0,4.2910795E0,0E0,0E0,5.9598966E0,0E0,6.280468E0,4.674712E0,0E0,0E0,0E0,0E0,0E0,0E0,0E0,0E0,0E0,0E0,0E0,0E0,0E0,0E0,0E0,0E0,0E0,0E0,0E0,0E0,0E0,0E0,0E0,0E0,0E0,0E0,0E0,0E0,0E0,0E0,0E0,0E0,0E0,0E0,0E0,0E0,0E0,0E0,0E0,0E0,0E0,0E0,0E0,0E0,0E0,0E0,0E0,0E0,0E0,0E0,0E0,0E0,0E0,0E0],"parents":[2147483647,0,0,1,1,2,2,3,3,4,4,5,5,6,6,7,7,8,8,9,9,10,10,11,11,12,12,13,13,14,14,15,15,16,16,17,17,18,18,19,19,20,20,21,21,22,22,23,23,24,24,25,25,26,26,27,27,28,28,29,29,30,30,31,31,32,32,33,33,34,34,35,35,36,36,37,37,38,38,39,39,40,40,41,41,43,43,44,44,45,45,46,46,47,47,48,48,49,49,50,50,51,51,52,52,53,53,54,54,56,56,59,59,61,61,62,62],"right_children":[2,4,6,8,10,12,14,16,18,20,22,24,26,28,30,32,34,36,38,40,42,44,46,48,50,52,54,56,58,60,62,64,66,68,70,72,74,76,78,80,82,84,-1,86,88,90,92,94,96,98,100,102,104,106,108,-1,110,-1,-1,112,-1,114,116,-1,-1,-1,-1,-1,-1,-1,-1,-1,-1,-1,-1,-1,-1,-1,-1,-1,-1,-1,-1,-1,-1,-1,-1,-1,-1,-1,-1,-1,-1,-1,-1,-1,-1,-1,-1,-1,-1,-1,-1,-1,-1,-1,-1,-1,-1,-1,-1,-1,-1,-1,-1,-1,-1],"split_conditions":[3.5743976E-1,-1.6272623E-2,1E0,1E0,-7.1732384E-1,1E0,-4.3344554E-1,-2.5027737E-2,2.855045E-1,-3.8883057E-1,3.0884746E-1,6.485887E-1,-1.7319153E-1,3.420935E-1,-7.1732384E-1,4.9682063E-1,-2.1198344E-1,1E0,1.9328451E-1,-4.978543E-2,2.0910932E-1,1.407429E0,3.4505257E-1,1E0,1.2161323E0,-5.1523966E-1,1E0,-5.505982E-1,-5.375472E-1,-1.5730457E-1,1E0,-5.4498297E-1,2.4698055E0,-2.3616266E-1,1E0,-6.34213E-1,-1.8984325E-1,1E0,-4.8235843E-1,1E0,4.42539E-1,1E0,-1.9441092E-3,1E0,1E0,3.0270156E-1,-7.531862E-1,5.811821E-1,1E0,-1.1981434E-1,1E0,4.1516446E-2,-1.8806319E-1,-5.655558E-1,-8.1161505E-1,2.5304988E-2,-5.4498297E-1,6.5901704E-2,-4.5987062E-2,-4.522748E-1,3.259581E-2,-8.9791334E-1,-1.1025161E-1,-2.7892787E-2,4.932852E-3,3.4895148E-2,9.06233E-2,-2.1754216E-2,7.5764194E-2,-6.532281E-2,-3.7879433E-2,-9.6097746E-4,3.153782E-2,5.5545628E-2,3.9443713E-2,8.741382E-3,-2.6705584E-2,1.0000259E-2,4.8184656E-2,5.0053955E-4,3.3587925E-2,-5.985101E-2,-1.3900296E-1,6.388508E-2,6.0079964E-3,-5.306263E-3,7.185414E-2,9.421616E-2,2.9427756E-2,9.686305E-3,7.805883E-2,-5.089112E-2,6.606008E-2,-7.146623E-2,-1.0801108E-1,-3.4985784E-2,-7.0348375E-2,5.613526E-3,-5.0091296E-2,6.1814826E-2,-3.2927293E-2,-7.085423E-2,-3.9668735E-2,-2.058201E-2,-7.470948E-2,-1.6915964E-2,1.5732005E-2,4.3186586E-2,-2.6974306E-2,-1.04696095E-1,-2.4244962E-2,9.6379727E-4,-1.3141315E-1,-1.9314297E-2,4.391268E-2,-6.8643056E-2,2.1340238E-2],"split_indices":[22,22,24,24,2,25,0,1,1,0,1,2,0,1,2,2,22,5,2,1,1,2,2,26,22,0,9,1,0,1,16,0,2,22,5,0,1,10,0,20,1,10,0,44,41,0,0,1,9,1,9,2,0,2,1,0,0,0,0,1,0,1,2,0,0,0,0,0,0,0,0,0,0,0,0,0,0,0,0,0,0,0,0,0,0,0,0,0,0,0,0,0,0,0,0,0,0,0,0,0,0,0,0,0,0,0,0,0,0,0,0,0,0,0,0,0,0],"split_type":[0,0,0,0,0,0,0,0,0,0,0,0,0,0,0,0,0,0,0,0,0,0,0,0,0,0,0,0,0,0,0,0,0,0,0,0,0,0,0,0,0,0,0,0,0,0,0,0,0,0,0,0,0,0,0,0,0,0,0,0,0,0,0,0,0,0,0,0,0,0,0,0,0,0,0,0,0,0,0,0,0,0,0,0,0,0,0,0,0,0,0,0,0,0,0,0,0,0,0,0,0,0,0,0,0,0,0,0,0,0,0,0,0,0,0,0,0],"sum_hessian":[1.0178991E4,7.108073E3,3.0709182E3,5.903433E3,1.2046403E3,2.6311116E3,4.3980664E2,3.560863E3,2.3425698E3,8.1055534E1,1.1235847E3,1.691283E3,9.398286E2,5.2913296E1,3.8689334E2,1.7474984E3,1.8133647E3,1.7352999E3,6.0726984E2,2.7402958E1,5.3652576E1,9.0455725E2,2.1902745E2,1.5294387E3,1.6184424E2,3.9942334E2,5.404053E2,3.7039497E1,1.5873801E1,2.013115E1,3.6676218E2,1.4785803E3,2.6891815E2,1.2686213E3,5.447434E2,9.4019794E2,7.9510205E2,4.066345E2,2.0063533E2,1.2573563E1,1.4829396E1,4.389761E1,9.754965E0,6.656423E2,2.3891501E2,8.42345E1,1.3479294E2,8.755488E2,6.538899E2,1.1100288E2,5.084136E1,9.899122E1,3.004321E2,4.0402173E2,1.3638353E2,9.944283E0,2.7095213E1,8.844992E0,7.0288095E0,1.2765129E1,7.3660197E0,3.3710513E2,2.965704E1,3.4436017E2,1.1342201E3,2.1911218E2,4.980599E1,1.2393553E3,2.9265938E1,3.3084595E2,2.1389743E2,1.20120605E2,8.2007733E2,4.8873834E2,3.063637E2,3.5536508E2,5.1269413E1,6.4638504E1,1.3599683E2,7.5440702E0,5.0294924E0,7.4141564E0,7.4152393E0,3.667626E1,7.2213507E0,1.2475194E1,6.5316705E2,2.30618E2,8.297014E0,6.6595795E1,1.7638704E1,5.0167828E0,1.2977617E2,6.463466E2,2.2920218E2,4.0252383E2,2.5136604E2,3.981447E1,7.11884E1,4.2679203E1,8.162153E0,6.3048103E1,3.5943115E1,2.7118146E2,2.9250666E1,1.0896461E2,2.9505713E2,1.2181409E1,1.2420212E2,1.2521605E1,1.4573609E1,7.683478E0,5.081651E0,1.597689E1,3.2112827E2,6.5960693E0,2.306097E1],"tree_param":{"num_deleted":"0","num_feature":"46","num_nodes":"117","size_leaf_vector":"1"}},{"base_weights":[1.5778756E-2,4.3045554E-1,-2.6997182E-1,6.853365E-1,3.0252248E-1,-1.5312873E-1,-6.870616E-1,4.0471885E-1,7.093642E-1,3.894881E-1,2.1414393E-1,-4.7667865E-2,-3.368476E-1,-5.969299E-1,-1.030942E0,4.6130574E-1,-4.4607203E-2,5.929455E-1,7.6018E-1,2.820763E-1,4.7945124E-1,1.3772379E-1,2.9267725E-1,4.1643962E-2,-1.9445021E-1,-2.5871754E-1,-5.1382685E-1,-7.1813077E-1,-4.4536635E-1,-1.0855654E0,-5.174443E-1,6.2743795E-1,3.2674825E-1,6.6663736E-1,4.1740546E-1,5.621757E-1,7.822075E-1,2.5163952E-1,6.785604E-1,6.020977E-1,4.1845617E-1,1.6872229E-1,-2.5497195E-1,2.5640926E-1,6.466953E-1,-3.0809554E-1,6.19926E-2,-3.0285218E-1,-6.676168E-2,-8.905917E-2,-3.1445664E-1,-4.6242937E-1,-9.346515E-1,-6.6226137E-1,-1.2817923E0,-9.458079E-2,-5.3011715E-1,-1.3079928E0,-9.70184E-1,-9.4627805E-2,-2.223932E-1,4.4411354E-2,8.725887E-2,1.4082561E-2,7.92098E-2,6.3791126E-2,9.9304266E-2,-3.6508314E-2,4.7450986E-2,6.5808974E-2,2.7221218E-2,8.0151364E-2,5.0645836E-2,3.3276675E-3,2.984844E-2,3.352244E-2,8.165965E-2,4.6475742E-2,6.696429E-2,-2.8660754E-2,4.3931607E-2,2.049427E-2,-2.0867666E-2,-1.24735355E-1,3.2448352E-3,2.7263163E-2,-2.1818206E-2,-1.8071737E-2,7.229172E-2,-3.915249E-3,-6.48793E-2,1.2433392E-2,-3.3466963E-3,-2.914312E-2,-1.0424476E-1,-1.0223851E-2,3.848784E-2,-2.5623754E-2,7.3447837E-3,3.42106E-2,-3.2867678E-2,-5.2060384E-2,-1.2683684E-2,-1.0639896E-1,-4.342759E-2,3.4490984E-2,-6.8229236E-2,-1.5651996E-1,-9.021827E-2,-2.7484803E-2,1.8753743E-2,-1.168287E-1,-5.094109E-2,-1.1064666E-1,-1.925881E-1,-9.97362E-2,-1.2942299E-2,-4.476401E-2,1.7736416E-2],"categories":[],"categories_nodes":[],"categories_segments":[],"categories_sizes":[],"default_left":[0,0,0,0,0,0,0,0,0,0,0,0,0,0,0,0,0,0,0,0,0,0,0,0,0,0,0,0,0,0,0,0,0,0,0,0,0,0,0,0,0,0,0,0,0,0,0,0,0,0,0,0,0,0,0,0,0,0,0,0,0,0,0,0,0,0,0,0,0,0,0,0,0,0,0,0,0,0,0,0,0,0,0,0,0,0,0,0,0,0,0,0,0,0,0,0,0,0,0,0,0,0,0,0,0,0,0,0,0,0,0,0,0,0,0,0,0,0,0],"id":4,"left_children":[1,3,5,7,9,11,13,15,17,19,21,23,25,27,29,31,-1,33,35,37,39,41,43,45,47,49,51,53,55,57,59,61,63,65,67,69,71,73,75,77,79,81,83,85,87,89,91,93,95,97,99,101,103,105,107,109,111,113,115,-1,117,-1,-1,-1,-1,-1,-1,-1,-1,-1,-1,-1,-1,-1,-1,-1,-1,-1,-1,-1,-1,-1,-1,-1,-1,-1,-1,-1,-1,-1,-1,-1,-1,-1,-1,-1,-1,-1,-1,-1,-1,-1,-1,-1,-1,-1,-1,-1,-1,-1,-1,-1,-1,-1,-1,-1,-1,-1,-1],"loss_changes":[1.2064039E3,1.3522998E2,2.936446E2,9.066895E0,2.118541E1,9.1237854E1,4.0258972E1,5.585594E0,7.101074E0,1.3330826E1,8.209991E0,3.9249477E1,2.3615173E1,1.8918121E1,7.081482E0,2.1481838E0,0E0,4.798218E0,3.4206848E0,7.52372E0,5.4106293E0,8.547206E0,8.527653E0,1.3269291E1,1.5656017E1,1.1258331E1,1.09227295E1,1.7425323E1,1.3862587E1,5.028534E0,3.3463025E0,1.6807251E0,5.1010222E0,1.9424591E0,5.4775333E0,2.3840714E0,3.8207397E0,6.063549E0,1.8526783E0,1.9999237E0,7.6092834E0,8.9020195E0,1.4732805E1,4.8007164E0,4.0573444E0,9.369918E0,1.0479849E1,4.8677864E0,8.391892E0,8.074995E0,8.496094E0,9.106194E0,3.1725044E0,1.0928467E1,4.1028595E0,4.7446504E0,4.382599E0,7.9478607E0,3.651291E0,0E0,1.6965864E0,0E0,0E0,0E0,0E0,0E0,0E0,0E0,0E0,0E0,0E0,0E0,0E0,0E0,0E0,0E0,0E0,0E0,0E0,0E0,0E0,0E0,0E0,0E0,0E0,0E0,0E0,0E0,0E0,0E0,0E0,0E0,0E0,0E0,0E0,0E0,0E0,0E0,0E0,0E0,0E0,0E0,0E0,0E0,0E0,0E0,0E0,0E0,0E0,0E0,0E0,0E0,0E0,0E0,0E0,0E0,0E0,0E0,0E0],"parents":[2147483647,0,0,1,1,2,2,3,3,4,4,5,5,6,6,7,7,8,8,9,9,10,10,11,11,12,12,13,13,14,14,15,15,17,17,18,18,19,19,20,20,21,21,22,22,23,23,24,24,25,25,26,26,27,27,28,28,29,29,30,30,31,31,32,32,33,33,34,34,35,35,36,36,37,37,38,38,39,39,40,40,41,41,42,42,43,43,44,44,45,45,46,46,47,47,48,48,49,49,50,50,51,51,52,52,53,53,54,54,55,55,56,56,57,57,58,58,60,60],"right_children":[2,4,6,8,10,12,14,16,18,20,22,24,26,28,30,32,-1,34,36,38,40,42,44,46,48,50,52,54,56,58,60,62,64,66,68,70,72,74,76,78,80,82,84,86,88,90,92,94,96,98,100,102,104,106,108,110,112,114,116,-1,118,-1,-1,-1,-1,-1,-1,-1,-1,-1,-1,-1,-1,-1,-1,-1,-1,-1,-1,-1,-1,-1,-1,-1,-1,-1,-1,-1,-1,-1,-1,-1,-1,-1,-1,-1,-1,-1,-1,-1,-1,-1,-1,-1,-1,-1,-1,-1,-1,-1,-1,-1,-1,-1,-1,-1,-1,-1,-1],"split_conditions":[-5.292319E-1,-1.0264282E0,5.233583E-1,-5.8959794E-1,-1.1415544E-1,4.701711E-2,1.1646898E0,1E0,1.9328451E-1,-1.6257316E-1,1E0,2.0274305E-1,4.5244208E-1,1E0,1E0,-1.75696E-1,-4.4607203E-2,5.844106E-2,-5.3232133E-1,1E0,-6.779235E-1,9.589138E-1,1.2556609E0,-7.279044E-1,1E0,-5.223037E-1,1E0,1.1088747E0,-4.0558887E-1,-8.690919E-1,5.844106E-2,-6.713921E-1,1.407429E0,1.4478192E0,9.239447E-2,-3.2101363E-2,6.2433124E-1,-6.34213E-1,-6.609468E-1,-9.3894035E-1,-6.609468E-1,1E0,1.0211617E0,1E0,-9.236149E-1,-7.8292954E-1,-5.1963013E-1,1E0,9.5212483E-1,-1.6257316E-1,-1.2301356E0,3.4505257E-1,-6.1654087E-2,-8.8703114E-1,-5.655558E-1,-5.810148E-1,-7.279044E-1,5.7057166E-1,1E0,-9.4627805E-2,1.2161323E0,4.4411354E-2,8.725887E-2,1.4082561E-2,7.92098E-2,6.3791126E-2,9.9304266E-2,-3.6508314E-2,4.7450986E-2,6.5808974E-2,2.7221218E-2,8.0151364E-2,5.0645836E-2,3.3276675E-3,2.984844E-2,3.352244E-2,8.165965E-2,4.6475742E-2,6.696429E-2,-2.8660754E-2,4.3931607E-2,2.049427E-2,-2.0867666E-2,-1.24735355E-1,3.2448352E-3,2.7263163E-2,-2.1818206E-2,-1.8071737E-2,7.229172E-2,-3.915249E-3,-6.48793E-2,1.2433392E-2,-3.3466963E-3,-2.914312E-2,-1.0424476E-1,-1.0223851E-2,3.848784E-2,-2.5623754E-2,7.3447837E-3,3.42106E-2,-3.2867678E-2,-5.2060384E-2,-1.2683684E-2,-1.0639896E-1,-4.342759E-2,3.4490984E-2,-6.8229236E-2,-1.5651996E-1,-9.021827E-2,-2.7484803E-2,1.8753743E-2,-1.168287E-1,-5.094109E-2,-1.1064666E-1,-1.925881E-1,-9.97362E-2,-1.2942299E-2,-4.476401E-2,1.7736416E-2],"split_indices":[21,21,21,0,1,21,22,39,2,0,5,1,1,5,8,1,0,1,22,19,1,1,2,0,5,1,10,1,1,2,1,0,2,0,1,1,1,0,1,1,1,11,1,14,22,0,21,37,2,0,22,2,0,0,2,1,0,1,14,0,22,0,0,0,0,0,0,0,0,0,0,0,0,0,0,0,0,0,0,0,0,0,0,0,0,0,0,0,0,0,0,0,0,0,0,0,0,0,0,0,0,0,0,0,0,0,0,0,0,0,0,0,0,0,0,0,0,0,0],"split_type":[0,0,0,0,0,0,0,0,0,0,0,0,0,0,0,0,0,0,0,0,0,0,0,0,0,0,0,0,0,0,0,0,0,0,0,0,0,0,0,0,0,0,0,0,0,0,0,0,0,0,0,0,0,0,0,0,0,0,0,0,0,0,0,0,0,0,0,0,0,0,0,0,0,0,0,0,0,0,0,0,0,0,0,0,0,0,0,0,0,0,0,0,0,0,0,0,0,0,0,0,0,0,0,0,0,0,0,0,0,0,0,0,0,0,0,0,0,0,0],"sum_hessian":[1.0179146E4,4.1525396E3,6.026607E3,1.3862858E3,2.766254E3,4.7088433E3,1.3177634E3,1.10745224E2,1.2755405E3,1.392555E3,1.3736989E3,2.9923772E3,1.7164663E3,1.04627E3,2.714935E2,1.0426805E2,6.4771724E0,3.9143457E2,8.84106E2,6.3660895E2,7.559461E2,6.9761194E2,6.760869E2,1.8608391E3,1.1315381E3,1.1924873E3,5.23979E2,5.792905E2,4.669795E2,2.4438309E2,2.7110395E1,4.5020386E1,5.9247665E1,2.737264E2,1.1770816E2,9.11635E1,7.929425E2,5.927409E2,4.386808E1,2.4813504E2,5.0781107E2,6.4710156E2,5.0510353E1,6.1482446E2,6.1262463E1,1.0153741E2,1.7593018E3,6.1124554E2,5.2029254E2,2.9553552E2,8.969517E2,4.688186E2,5.516039E1,5.2902875E2,5.026174E1,9.128104E1,3.7569846E2,7.994062E1,1.6444247E2,1.0150407E1,1.6959988E1,2.7366919E1,1.7653467E1,4.3264633E1,1.5983033E1,2.5430046E2,1.9425943E1,7.6390276E0,1.1006913E2,6.754983E1,2.3613668E1,7.3927673E2,5.3665813E1,1.050007E2,4.877402E2,1.3562562E1,3.030552E1,8.440148E1,1.6373355E2,1.4226209E1,4.9358484E2,5.9085223E2,5.6249363E1,1.0593646E1,3.991671E1,5.9491473E2,1.9909678E1,5.0518637E0,5.6210598E1,5.736722E1,4.417018E1,1.0640834E3,6.952184E2,6.0332294E2,7.922605E0,4.831168E2,3.7175724E1,1.4538971E2,1.501458E2,1.852595E1,8.784258E2,3.990863E2,6.973231E1,4.2935856E1,1.222453E1,1.0000062E1,5.190287E2,2.698913E1,2.3272612E1,5.5709614E1,3.5571426E1,1.0065217E1,3.6563324E2,6.2384445E1,1.7556173E1,1.5911284E2,5.3296366E0,1.0771122E1,6.1888657E0],"tree_param":{"num_deleted":"0","num_feature":"46","num_nodes":"119","size_leaf_vector":"1"}},{"base_weights":[-3.8860197E-4,-9.675335E-2,6.401654E-1,-2.5478503E-1,2.6718363E-1,-6.0153375E-3,6.542045E-1,-4.314188E-1,-7.324037E-2,5.2623045E-2,3.0282962E-1,3.571308E-1,-4.3931007E-1,6.125542E-1,8.0622655E-1,-3.5973018E-1,-6.435712E-1,7.919074E-3,-2.0513274E-1,4.56832E-1,-1.0213273E-3,3.8266563E-1,2.1671683E-1,-1.2061474E-3,5.20977E-1,-1.0206461E-1,6.6247E-3,6.7084837E-1,5.368853E-1,8.3726853E-1,2.4047677E-1,-2.2437571E-1,-4.501983E-1,-5.424263E-1,-8.1260294E-1,3.3717954E-1,-1.3116211E-2,-2.7989095E-1,-1.0550467E-1,-2.477263E-2,6.069842E-1,-8.0815196E-2,2.171742E-1,3.045374E-1,4.5578814E-1,2.8356278E-1,9.764043E-2,2.97602E-2,6.523191E-2,4.9101588E-1,7.021387E-1,4.227016E-1,6.300612E-1,8.730624E-1,4.739932E-1,5.408671E-2,-2.722904E-2,-4.4548374E-2,-1.4316976E-2,-3.2802377E-2,-5.911423E-2,-6.5289766E-2,-3.7147265E-2,-7.046426E-2,-1.11233786E-1,4.4808198E-2,-2.2995858E-2,-9.493816E-3,8.639132E-3,-3.6830094E-2,-1.6222669E-2,-4.0221345E-2,-7.2402093E-3,9.375434E-2,4.8071723E-2,-1.160828E-2,5.5829912E-2,-4.318084E-3,3.892542E-2,2.7460992E-2,5.3463038E-2,2.9005198E-2,5.0370585E-2,2.8078188E-3,3.3704963E-2,1.2111037E-2,-8.123454E-2,5.334667E-2,-1.461369E-2,6.8210796E-2,8.744527E-2,3.742098E-2,8.464008E-2,4.9650677E-2,7.257856E-2,7.6344006E-2,1.00367725E-1,1.2341816E-2,6.5257445E-2],"categories":[],"categories_nodes":[],"categories_segments":[],"categories_sizes":[],"default_left":[0,0,0,0,0,0,0,0,0,0,0,0,0,0,0,0,0,0,0,0,0,0,0,0,0,0,0,0,0,0,0,0,0,0,0,0,0,0,0,0,0,0,0,0,0,0,0,0,0,0,0,0,0,0,0,0,0,0,0,0,0,0,0,0,0,0,0,0,0,0,0,0,0,0,0,0,0,0,0,0,0,0,0,0,0,0,0,0,0,0,0,0,0,0,0,0,0,0,0],"id":5,"left_children":[1,3,5,7,9,11,13,15,17,19,21,23,25,27,29,31,33,35,37,39,41,43,45,-1,47,-1,-1,49,51,53,55,57,59,61,63,65,67,69,71,-1,73,75,77,79,81,83,85,-1,-1,87,89,91,93,95,97,-1,-1,-1,-1,-1,-1,-1,-1,-1,-1,-1,-1,-1,-1,-1,-1,-1,-1,-1,-1,-1,-1,-1,-1,-1,-1,-1,-1,-1,-1,-1,-1,-1,-1,-1,-1,-1,-1,-1,-1,-1,-1,-1,-1],"loss_changes":[6.243991E2,5.0577005E2,1.2003845E1,1.9657562E2,2.034813E1,4.738721E0,7.7036743E0,4.7028748E1,3.2379494E1,8.2519E0,1.5612778E1,9.979317E-1,4.1015115E0,4.1408386E0,4.6327972E0,2.836737E1,1.2955475E1,1.2980254E1,8.552658E0,4.867382E0,5.884092E0,6.621872E0,8.733265E0,0E0,1.3965273E-1,0E0,0E0,2.8759766E0,4.511032E0,2.9739532E0,2.5687196E0,1.6695034E1,2.3784302E1,9.072311E0,8.643478E0,7.181443E0,1.435368E1,6.782097E0,4.8383684E0,0E0,1.0955114E0,5.6424084E0,4.071289E0,3.813568E0,4.6924896E0,9.616222E0,8.582585E0,0E0,0E0,2.4623508E0,1.0782623E0,3.8912811E0,2.7746887E0,2.6126556E0,1.5194511E0,0E0,0E0,0E0,0E0,0E0,0E0,0E0,0E0,0E0,0E0,0E0,0E0,0E0,0E0,0E0,0E0,0E0,0E0,0E0,0E0,0E0,0E0,0E0,0E0,0E0,0E0,0E0,0E0,0E0,0E0,0E0,0E0,0E0,0E0,0E0,0E0,0E0,0E0,0E0,0E0,0E0,0E0,0E0,0E0],"parents":[2147483647,0,0,1,1,2,2,3,3,4,4,5,5,6,6,7,7,8,8,9,9,10,10,11,11,12,12,13,13,14,14,15,15,16,16,17,17,18,18,19,19,20,20,21,21,22,22,24,24,27,27,28,28,29,29,30,30,31,31,32,32,33,33,34,34,35,35,36,36,37,37,38,38,40,40,41,41,42,42,43,43,44,44,45,45,46,46,49,49,50,50,51,51,52,52,53,53,54,54],"right_children":[2,4,6,8,10,12,14,16,18,20,22,24,26,28,30,32,34,36,38,40,42,44,46,-1,48,-1,-1,50,52,54,56,58,60,62,64,66,68,70,72,-1,74,76,78,80,82,84,86,-1,-1,88,90,92,94,96,98,-1,-1,-1,-1,-1,-1,-1,-1,-1,-1,-1,-1,-1,-1,-1,-1,-1,-1,-1,-1,-1,-1,-1,-1,-1,-1,-1,-1,-1,-1,-1,-1,-1,-1,-1,-1,-1,-1,-1,-1,-1,-1,-1,-1],"split_conditions":[1E0,1E0,-7.531862E-1,1E0,-5.8751595E-1,5.2782163E-2,1.7109652E0,1.1185763E0,2.0274305E-1,-7.493672E-1,-1.0778917E-1,-2.1198344E-1,3.420935E-1,-1.3254687E-1,6.342343E-1,-7.595785E-2,3.9868253E-1,-9.8421156E-1,1E0,-1.0853645E0,3.4505257E-1,1E0,1E0,-1.2061474E-3,-4.791546E-1,-1.0206461E-1,6.6247E-3,-2.1198344E-1,3.4505257E-1,9.9423654E-2,-1.434482E-1,-4.706247E-1,1E0,6.993035E-2,1E0,6.485887E-1,-4.1378775E-1,-2.6201966E-1,2.6994252E-1,-2.477263E-2,-5.4225624E-1,1E0,-4.3419167E-2,9.5212483E-1,-7.1732384E-1,-7.1732384E-1,1.1088747E0,2.97602E-2,6.523191E-2,1E0,1.2247444E0,1E0,-1.9857745E-1,4.9883354E-2,-9.883323E-2,5.408671E-2,-2.722904E-2,-4.4548374E-2,-1.4316976E-2,-3.2802377E-2,-5.911423E-2,-6.5289766E-2,-3.7147265E-2,-7.046426E-2,-1.11233786E-1,4.4808198E-2,-2.2995858E-2,-9.493816E-3,8.639132E-3,-3.6830094E-2,-1.6222669E-2,-4.0221345E-2,-7.2402093E-3,9.375434E-2,4.8071723E-2,-1.160828E-2,5.5829912E-2,-4.318084E-3,3.892542E-2,2.7460992E-2,5.3463038E-2,2.9005198E-2,5.0370585E-2,2.8078188E-3,3.3704963E-2,1.2111037E-2,-8.123454E-2,5.334667E-2,-1.461369E-2,6.8210796E-2,8.744527E-2,3.742098E-2,8.464008E-2,4.9650677E-2,7.257856E-2,7.6344006E-2,1.00367725E-1,1.2341816E-2,6.5257445E-2],"split_indices":[23,24,0,25,0,1,2,22,1,1,1,22,1,1,1,1,1,1,20,1,2,5,9,0,1,0,0,22,2,22,0,0,9,0,28,2,2,2,1,0,22,13,1,2,2,2,1,0,0,11,0,19,0,0,0,0,0,0,0,0,0,0,0,0,0,0,0,0,0,0,0,0,0,0,0,0,0,0,0,0,0,0,0,0,0,0,0,0,0,0,0,0,0,0,0,0,0,0,0],"split_type":[0,0,0,0,0,0,0,0,0,0,0,0,0,0,0,0,0,0,0,0,0,0,0,0,0,0,0,0,0,0,0,0,0,0,0,0,0,0,0,0,0,0,0,0,0,0,0,0,0,0,0,0,0,0,0,0,0,0,0,0,0,0,0,0,0,0,0,0,0,0,0,0,0,0,0,0,0,0,0,0,0,0,0,0,0,0,0,0,0,0,0,0,0,0,0,0,0,0,0],"sum_hessian":[1.0113519E4,8.79174E3,1.3217778E3,6.130155E3,2.661586E3,2.8118847E1,1.293659E3,3.1064043E3,3.0237505E3,3.7953906E2,2.2820469E3,1.5393374E1,1.2725473E1,1.01939825E3,2.7426074E2,2.3238464E3,7.825578E2,1.872472E3,1.1512783E3,4.358808E1,3.35951E2,1.1823942E3,1.0996528E3,5.0163937E0,1.0376981E1,5.4452124E0,7.2802606E0,5.713633E2,4.48035E2,2.5954016E2,1.4720588E1,9.323641E2,1.3914824E3,4.9222815E2,2.9032965E2,1.1153957E2,1.7609325E3,6.5669946E2,4.9457892E2,7.5432234E0,3.604486E1,2.4645302E2,8.949798E1,5.7412787E2,6.0826624E2,7.034022E2,3.9625058E2,5.0515704E0,5.32541E0,8.715528E1,4.8420798E2,2.038099E2,2.442251E2,2.3498372E2,2.4556456E1,9.248066E0,5.4725213E0,2.4924164E2,6.8312244E2,7.47154E2,6.4432837E2,2.9729498E2,1.9493318E2,2.1591205E2,7.441761E1,9.34714E1,1.8068174E1,9.6636584E2,7.9456665E2,3.73746E2,2.8295343E2,4.852085E1,4.4605807E2,8.186917E0,2.7857943E1,2.3434003E2,1.2112984E1,3.5912243E1,5.358574E1,5.099887E2,6.413917E1,1.3800218E2,4.7026407E2,1.2203169E2,5.8137054E2,3.8713272E2,9.117839E0,8.186378E1,5.2915044E0,4.3822473E2,4.598324E1,1.8456938E2,1.9240526E1,1.04547485E2,1.3967763E2,1.3148012E2,1.035036E2,8.858104E0,1.5698352E1],"tree_param":{"num_deleted":"0","num_feature":"46","num_nodes":"99","size_leaf_vector":"1"}},{"base_weights":[-3.3178558E-3,3.602042E-1,-2.2880168E-1,5.8764863E-1,2.509994E-1,-1.3497862E-1,-5.4891396E-1,6.2724936E-1,4.1924024E-1,3.1943423E-1,1.5337156E-1,4.0566485E-2,-1.9297491E-1,-4.7811967E-1,-7.066719E-1,5.782374E-1,7.677441E-1,-3.1564835E-2,4.476465E-1,4.032677E-1,2.5657764E-1,1.7124265E-1,-2.1959674E-1,1.5081206E-1,-9.551572E-2,-1.0604013E-1,-3.0748364E-1,-3.627724E-1,-5.726049E-1,-6.4546686E-1,-1.1065378E0,2.4085568E-1,6.0732764E-1,8.159185E-1,3.326977E-1,4.666152E-1,-5.942655E-3,4.4263282E-1,2.3252472E-1,2.2189021E-1,6.0481435E-1,1.9651219E-1,-1.323967E-1,-9.233683E-1,8.707103E-2,3.136685E-1,1.1981833E-1,-2.2005656E-1,1.3427347E-1,-2.1692052E-1,-4.055982E-2,-1.8026833E-1,-4.128416E-1,-3.849047E-1,-5.2636705E-2,-6.724414E-1,-4.4964132E-1,-5.7976127E-1,-9.260611E-1,-1.3039908E0,-7.045275E-1,7.0430688E-3,4.0582366E-2,5.213334E-2,6.688695E-2,7.5750574E-2,9.8966144E-2,-1.1707843E-2,5.449604E-2,2.5812484E-4,4.836282E-2,4.0517427E-2,5.61381E-2,-8.896227E-3,4.2329736E-2,2.380452E-2,-2.5585324E-2,6.466495E-2,1.8660155E-3,1.7162105E-2,4.1846775E-2,1.6760593E-2,-2.8858757E-2,-1.2876455E-1,-5.8221795E-2,3.1429406E-2,-9.832674E-3,1.1566436E-2,6.782325E-2,5.503269E-3,2.2428986E-2,-3.5629276E-2,-3.304958E-3,2.5327712E-2,-1.2389247E-2,-2.02383E-2,-1.4867511E-1,3.4594757E-3,-1.092936E-2,-8.619486E-3,-2.9016796E-2,-4.1963965E-2,5.7294883E-2,-3.6479358E-2,-8.622855E-2,-8.815986E-2,2.7893364E-2,-4.3642513E-2,-7.652619E-2,-5.4225054E-2,-1.601035E-2,-3.745358E-2,-6.555082E-2,-1.34148E-1,-6.4279556E-2,-1.5493484E-1,-9.147388E-2,-1.3558237E-1,-3.6613617E-2],"categories":[],"categories_nodes":[],"categories_segments":[],"categories_sizes":[],"default_left":[0,0,0,0,0,0,0,0,0,0,0,0,0,0,0,0,0,0,0,0,0,0,0,0,0,0,0,0,0,0,0,0,0,0,0,0,0,0,0,0,0,0,0,0,0,0,0,0,0,0,0,0,0,0,0,0,0,0,0,0,0,0,0,0,0,0,0,0,0,0,0,0,0,0,0,0,0,0,0,0,0,0,0,0,0,0,0,0,0,0,0,0,0,0,0,0,0,0,0,0,0,0,0,0,0,0,0,0,0,0,0,0,0,0,0,0,0,0,0],"id":6,"left_children":[1,3,5,7,9,11,13,15,17,19,21,23,25,27,29,31,33,-1,35,37,39,41,43,45,47,49,51,53,55,57,59,61,63,65,67,69,-1,71,73,75,77,79,81,83,85,87,89,91,93,95,97,99,101,103,105,107,109,111,113,115,117,-1,-1,-1,-1,-1,-1,-1,-1,-1,-1,-1,-1,-1,-1,-1,-1,-1,-1,-1,-1,-1,-1,-1,-1,-1,-1,-1,-1,-1,-1,-1,-1,-1,-1,-1,-1,-1,-1,-1,-1,-1,-1,-1,-1,-1,-1,-1,-1,-1,-1,-1,-1,-1,-1,-1,-1,-1,-1],"loss_changes":[8.269233E2,9.577762E1,1.8692584E2,8.087097E0,1.7395355E1,4.9043007E1,1.5419891E1,6.522278E0,5.18021E0,7.9802704E0,7.22229E0,1.7970743E1,3.6008408E1,1.0440079E1,9.930527E0,7.2545776E0,5.1482086E0,0E0,2.2670212E0,4.3035355E0,1.0489281E1,7.922798E0,1.0812402E1,3.301879E0,1.5377149E1,1.4944515E1,2.0860214E1,3.0181313E0,6.2695007E0,6.4618225E0,3.553238E0,1.7008834E0,3.3217468E0,1.6061401E0,2.6862857E0,1.7713203E0,0E0,2.1374435E0,7.700159E0,6.245907E0,1.9273148E0,5.17955E0,3.7814429E0,1.1365175E0,1.5284132E0,7.5127172E0,3.760561E0,8.858641E0,5.841575E0,1.3811047E1,6.698971E0,7.3085976E0,5.960663E0,3.6506271E0,8.668576E0,6.094284E0,6.4262733E0,4.577507E0,7.416218E0,2.0787811E0,4.072714E0,0E0,0E0,0E0,0E0,0E0,0E0,0E0,0E0,0E0,0E0,0E0,0E0,0E0,0E0,0E0,0E0,0E0,0E0,0E0,0E0,0E0,0E0,0E0,0E0,0E0,0E0,0E0,0E0,0E0,0E0,0E0,0E0,0E0,0E0,0E0,0E0,0E0,0E0,0E0,0E0,0E0,0E0,0E0,0E0,0E0,0E0,0E0,0E0,0E0,0E0,0E0,0E0,0E0,0E0,0E0,0E0,0E0,0E0],"parents":[2147483647,0,0,1,1,2,2,3,3,4,4,5,5,6,6,7,7,8,8,9,9,10,10,11,11,12,12,13,13,14,14,15,15,16,16,18,18,19,19,20,20,21,21,22,22,23,23,24,24,25,25,26,26,27,27,28,28,29,29,30,30,31,31,32,32,33,33,34,34,35,35,37,37,38,38,39,39,40,40,41,41,42,42,43,43,44,44,45,45,46,46,47,47,48,48,49,49,50,50,51,51,52,52,53,53,54,54,55,55,56,56,57,57,58,58,59,59,60,60],"right_children":[2,4,6,8,10,12,14,16,18,20,22,24,26,28,30,32,34,-1,36,38,40,42,44,46,48,50,52,54,56,58,60,62,64,66,68,70,-1,72,74,76,78,80,82,84,86,88,90,92,94,96,98,100,102,104,106,108,110,112,114,116,118,-1,-1,-1,-1,-1,-1,-1,-1,-1,-1,-1,-1,-1,-1,-1,-1,-1,-1,-1,-1,-1,-1,-1,-1,-1,-1,-1,-1,-1,-1,-1,-1,-1,-1,-1,-1,-1,-1,-1,-1,-1,-1,-1,-1,-1,-1,-1,-1,-1,-1,-1,-1,-1,-1,-1,-1,-1,-1],"split_conditions":[-9.7353303E-1,-1.0264282E0,3.5573244E-1,2.777235E-1,1E0,-3.9214897E-1,7.5499636E-1,1.5591971E0,-7.1732384E-1,-2.1389358E-1,9.051542E-1,-1.9964087E-1,1E0,6.551469E-2,9.3840027E-1,-5.7116246E-1,9.9423654E-2,-3.1564835E-2,1E0,1.1762494E0,1.2556609E0,1E0,-4.1378775E-1,-9.8421156E-1,9.9341697E-1,1E0,-5.0418293E-1,6.631517E-1,1E0,1.3848666E0,1.1488266E0,1E0,1.9328451E-1,1E0,1E0,2.932855E-1,-5.942655E-3,-3.7941647E-1,1.9328451E-1,1E0,1E0,9.5212483E-1,-2.7118996E-1,1.0211617E0,-1.0073851E0,-1.0627289E0,1E0,-4.1378775E-1,1E0,1E0,1.8788844E-1,2.855045E-1,1E0,6.5355456E-1,-7.797837E-1,1E0,9.207162E-1,-3.3414525E-1,-8.690919E-1,-5.655558E-1,8.218362E-2,7.0430688E-3,4.0582366E-2,5.213334E-2,6.688695E-2,7.5750574E-2,9.8966144E-2,-1.1707843E-2,5.449604E-2,2.5812484E-4,4.836282E-2,4.0517427E-2,5.61381E-2,-8.896227E-3,4.2329736E-2,2.380452E-2,-2.5585324E-2,6.466495E-2,1.8660155E-3,1.7162105E-2,4.1846775E-2,1.6760593E-2,-2.8858757E-2,-1.2876455E-1,-5.8221795E-2,3.1429406E-2,-9.832674E-3,1.1566436E-2,6.782325E-2,5.503269E-3,2.2428986E-2,-3.5629276E-2,-3.304958E-3,2.5327712E-2,-1.2389247E-2,-2.02383E-2,-1.4867511E-1,3.4594757E-3,-1.092936E-2,-8.619486E-3,-2.9016796E-2,-4.1963965E-2,5.7294883E-2,-3.6479358E-2,-8.622855E-2,-8.815986E-2,2.7893364E-2,-4.3642513E-2,-7.652619E-2,-5.4225054E-2,-1.601035E-2,-3.745358E-2,-6.555082E-2,-1.34148E-1,-6.4279556E-2,-1.5493484E-1,-9.147388E-2,-1.3558237E-1,-3.6613617E-2],"split_indices":[21,21,21,1,9,1,21,2,2,1,1,22,9,1,1,22,22,0,12,22,2,11,2,1,22,25,21,21,5,21,21,5,2,31,5,1,0,1,2,14,11,2,1,1,21,1,5,2,9,41,1,1,42,21,1,32,1,1,2,2,22,0,0,0,0,0,0,0,0,0,0,0,0,0,0,0,0,0,0,0,0,0,0,0,0,0,0,0,0,0,0,0,0,0,0,0,0,0,0,0,0,0,0,0,0,0,0,0,0,0,0,0,0,0,0,0,0,0,0],"split_type":[0,0,0,0,0,0,0,0,0,0,0,0,0,0,0,0,0,0,0,0,0,0,0,0,0,0,0,0,0,0,0,0,0,0,0,0,0,0,0,0,0,0,0,0,0,0,0,0,0,0,0,0,0,0,0,0,0,0,0,0,0,0,0,0,0,0,0,0,0,0,0,0,0,0,0,0,0,0,0,0,0,0,0,0,0,0,0,0,0,0,0,0,0,0,0,0,0,0,0,0,0,0,0,0,0,0,0,0,0,0,0,0,0,0,0,0,0,0,0],"sum_hessian":[1.0086319E4,3.8610264E3,6.225293E3,1.2510472E3,2.609979E3,4.81536E3,1.4099327E3,1.01066724E3,2.4038002E2,1.5330647E3,1.0769143E3,1.1958928E3,3.6194673E3,9.7598706E2,4.339457E2,7.530721E2,2.5759518E2,8.5695E0,2.3181052E2,6.545965E2,8.7846814E2,1.0281886E3,4.8725708E1,6.606035E2,5.3528925E2,2.0585483E3,1.5609191E3,4.416551E2,5.34332E2,3.786086E2,5.5337097E1,6.0514725E1,6.925574E2,2.311262E2,2.6468977E1,2.2352849E2,8.282019E0,5.3065955E2,1.23937E2,8.003804E2,7.808777E1,9.4952026E2,7.866836E1,1.4177897E1,3.4547813E1,1.0416238E2,5.564411E2,3.4717188E2,1.881174E2,7.63452E2,1.2950962E3,7.0833954E2,8.525795E2,4.120115E2,2.964358E1,2.9243204E2,2.4189995E2,3.0925726E2,6.935133E1,3.560535E1,1.9731747E1,3.0466917E1,3.0047808E1,2.928378E2,3.9971957E2,1.7698375E2,5.4142456E1,8.630251E0,1.7838726E1,7.946187E0,2.155823E2,4.067607E2,1.2389882E2,4.6354614E1,7.7582375E1,7.74686E2,2.5694416E1,7.2789406E1,5.2983603E0,8.553684E2,9.4151825E1,2.690934E1,5.175902E1,5.5148096E0,8.663088E0,1.5210555E1,1.9337257E1,6.835453E1,3.5807846E1,3.4439755E2,2.1204355E2,2.0032683E2,1.4684505E2,1.28776E2,5.9341396E1,7.559569E2,7.4951205E0,6.188895E2,6.762067E2,3.82611E2,3.2572855E2,8.473107E2,5.268791E0,3.9704877E2,1.4962736E1,7.9953866E0,2.1648193E1,8.415397E1,2.0827806E2,1.826168E2,5.9283142E1,8.497479E1,2.2428247E2,2.6602322E1,4.2749012E1,2.0011295E1,1.5594054E1,5.718593E0,1.4013155E1],"tree_param":{"num_deleted":"0","num_feature":"46","num_nodes":"119","size_leaf_vector":"1"}},{"base_weights":[-7.6165157E-3,3.238535E-1,-2.0972711E-1,5.6977534E-1,2.1128127E-1,-1.2802978E-1,-4.6771327E-1,5.090433E-1,7.2955245E-1,2.734363E-1,1.24493554E-1,-6.101358E-2,-2.4197158E-1,-4.0266937E-1,-6.2627965E-1,-2.8247106E-1,5.23953E-1,3.45187E-1,7.612897E-1,3.653255E-1,2.0561166E-1,1.4147659E-1,-2.6722294E-1,-2.0303994E-1,-1.7368916E-2,-1.7392462E-1,-3.9059132E-1,-3.6865336E-1,-8.0907804E-1,-5.020414E-1,-7.991321E-1,4.3320075E-2,-9.230968E-2,4.6698862E-1,6.786301E-1,5.560529E-3,5.9745574E-1,6.4789045E-1,8.300767E-1,4.8288876E-1,2.9197744E-1,1.7420729E-1,5.3525496E-1,2.3011123E-1,8.3220966E-2,-8.424594E-1,5.7951983E-2,9.136812E-2,-2.2627869E-1,7.62242E-2,-7.235706E-2,-2.6873997E-1,-5.4655205E-2,-3.3778316E-1,-7.968589E-1,-2.8005067E-1,-4.7201285E-1,-8.7272084E-1,-1.4050667E-2,-1.0959402E0,-4.5755488E-1,-7.530501E-1,-1.8522024E-1,6.481478E-2,4.2364437E-2,7.166723E-2,2.7588105E-2,-1.8895768E-2,1.6587801E-2,7.2531216E-2,2.8202344E-2,4.8300385E-2,7.5276084E-2,8.683365E-2,-7.889334E-3,-7.4902596E-3,5.0614305E-2,5.315665E-3,3.5744097E-2,1.972456E-2,-2.353453E-3,-1.0996827E-2,6.103484E-2,-2.2682836E-2,2.775774E-2,-2.0722538E-2,1.0912385E-2,-3.230047E-2,-1.3977192E-1,3.3873804E-2,-3.2414127E-2,-1.2280038E-2,4.2138327E-2,-1.8422836E-2,-4.3554034E-2,-5.867677E-4,2.098065E-2,-2.2216726E-2,-9.450712E-4,8.1942235E-5,-3.0545413E-2,4.461433E-2,-8.532416E-3,-4.2907696E-2,-1.8335395E-2,3.9752405E-3,-8.912948E-2,-1.027581E-2,-3.4178466E-2,-3.233176E-2,-5.6424465E-2,-9.364687E-2,-1.1938321E-2,-1.3875116E-1,-4.370584E-2,-4.746563E-3,-5.063924E-2,-1.01051114E-1,-6.2476356E-2],"categories":[],"categories_nodes":[],"categories_segments":[],"categories_sizes":[],"default_left":[0,0,0,0,0,0,0,0,0,0,0,0,0,0,0,0,0,0,0,0,0,0,0,0,0,0,0,0,0,0,0,0,0,0,0,0,0,0,0,0,0,0,0,0,0,0,0,0,0,0,0,0,0,0,0,0,0,0,0,0,0,0,0,0,0,0,0,0,0,0,0,0,0,0,0,0,0,0,0,0,0,0,0,0,0,0,0,0,0,0,0,0,0,0,0,0,0,0,0,0,0,0,0,0,0,0,0,0,0,0,0,0,0,0,0,0,0,0,0],"id":7,"left_children":[1,3,5,7,9,11,13,15,17,19,21,23,25,27,29,31,33,35,37,39,41,43,45,47,49,51,53,55,57,59,61,-1,-1,63,65,67,69,71,73,75,77,79,81,83,85,87,89,91,93,95,97,99,101,103,105,107,109,111,-1,113,115,117,-1,-1,-1,-1,-1,-1,-1,-1,-1,-1,-1,-1,-1,-1,-1,-1,-1,-1,-1,-1,-1,-1,-1,-1,-1,-1,-1,-1,-1,-1,-1,-1,-1,-1,-1,-1,-1,-1,-1,-1,-1,-1,-1,-1,-1,-1,-1,-1,-1,-1,-1,-1,-1,-1,-1,-1,-1],"loss_changes":[6.7469196E2,1.05486115E2,1.3180194E2,1.1246613E1,1.4090538E1,3.6278458E1,1.52630005E1,1.0425018E1,3.7316284E0,9.428619E0,7.319191E0,1.855579E1,1.7729889E1,1.4487488E1,8.9570465E0,8.079589E0,7.2173767E0,2.2932265E0,1.8151093E0,5.4319305E0,9.012787E0,5.4009438E0,8.621065E0,4.835203E0,1.1798045E1,1.3656982E1,1.1571602E1,8.922928E0,3.3566132E0,6.268326E0,7.366562E0,0E0,0E0,4.6577454E0,3.2947388E0,4.190843E-1,4.153576E-1,1.6845245E0,6.4742813E0,3.2387962E0,6.2426033E0,3.6700687E0,3.7508297E0,9.079958E0,4.7996945E0,4.3407497E0,3.3512776E0,3.7408175E0,5.6615486E0,9.305826E0,1.3604954E1,6.663414E0,8.2810755E0,6.831768E0,4.993145E0,5.818802E0,6.0565643E0,3.464489E0,0E0,2.6861763E0,4.784477E0,5.1374893E0,0E0,0E0,0E0,0E0,0E0,0E0,0E0,0E0,0E0,0E0,0E0,0E0,0E0,0E0,0E0,0E0,0E0,0E0,0E0,0E0,0E0,0E0,0E0,0E0,0E0,0E0,0E0,0E0,0E0,0E0,0E0,0E0,0E0,0E0,0E0,0E0,0E0,0E0,0E0,0E0,0E0,0E0,0E0,0E0,0E0,0E0,0E0,0E0,0E0,0E0,0E0,0E0,0E0,0E0,0E0,0E0,0E0],"parents":[2147483647,0,0,1,1,2,2,3,3,4,4,5,5,6,6,7,7,8,8,9,9,10,10,11,11,12,12,13,13,14,14,15,15,16,16,17,17,18,18,19,19,20,20,21,21,22,22,23,23,24,24,25,25,26,26,27,27,28,28,29,29,30,30,33,33,34,34,35,35,36,36,37,37,38,38,39,39,40,40,41,41,42,42,43,43,44,44,45,45,46,46,47,47,48,48,49,49,50,50,51,51,52,52,53,53,54,54,55,55,56,56,57,57,59,59,60,60,61,61],"right_children":[2,4,6,8,10,12,14,16,18,20,22,24,26,28,30,32,34,36,38,40,42,44,46,48,50,52,54,56,58,60,62,-1,-1,64,66,68,70,72,74,76,78,80,82,84,86,88,90,92,94,96,98,100,102,104,106,108,110,112,-1,114,116,118,-1,-1,-1,-1,-1,-1,-1,-1,-1,-1,-1,-1,-1,-1,-1,-1,-1,-1,-1,-1,-1,-1,-1,-1,-1,-1,-1,-1,-1,-1,-1,-1,-1,-1,-1,-1,-1,-1,-1,-1,-1,-1,-1,-1,-1,-1,-1,-1,-1,-1,-1,-1,-1,-1,-1,-1,-1],"split_conditions":[-5.292319E-1,-1.0264282E0,9.536716E-2,1.407385E0,1E0,-4.667196E-1,5.4015505E-1,-7.680579E-1,1E0,-2.1389358E-1,9.207162E-1,-5.1523966E-1,4.5244208E-1,1.2161323E0,1E0,4.968012E-1,3.4136787E-1,-6.1654087E-2,-2.2152442E-1,-3.1154257E-1,1.2556211E0,-2.7642024E-1,-4.1378263E-1,-7.903942E-1,-2.2662611E-1,1E0,1E0,1E0,9.2731124E-1,-7.279044E-1,4.8116145E-1,4.3320075E-2,-9.230968E-2,-6.2770075E-1,1E0,1E0,2.4697328E0,-4.1761404E-1,6.462595E-1,-1.1348798E0,-7.173106E-1,1.2329121E0,-6.100911E-1,-7.279044E-1,1E0,1E0,1.1088747E0,-6.100911E-1,-5.0418293E-1,1E0,-7.173106E-1,-7.5856286E-1,-6.515406E-1,9.207162E-1,-7.279044E-1,-4.1195515E-1,1E0,1E0,-1.4050667E-2,-7.280764E-2,5.653677E-1,-8.690745E-1,-1.8522024E-1,6.481478E-2,4.2364437E-2,7.166723E-2,2.7588105E-2,-1.8895768E-2,1.6587801E-2,7.2531216E-2,2.8202344E-2,4.8300385E-2,7.5276084E-2,8.683365E-2,-7.889334E-3,-7.4902596E-3,5.0614305E-2,5.315665E-3,3.5744097E-2,1.972456E-2,-2.353453E-3,-1.0996827E-2,6.103484E-2,-2.2682836E-2,2.775774E-2,-2.0722538E-2,1.0912385E-2,-3.230047E-2,-1.3977192E-1,3.3873804E-2,-3.2414127E-2,-1.2280038E-2,4.2138327E-2,-1.8422836E-2,-4.3554034E-2,-5.867677E-4,2.098065E-2,-2.2216726E-2,-9.450712E-4,8.1942235E-5,-3.0545413E-2,4.461433E-2,-8.532416E-3,-4.2907696E-2,-1.8335395E-2,3.9752405E-3,-8.912948E-2,-1.027581E-2,-3.4178466E-2,-3.233176E-2,-5.6424465E-2,-9.364687E-2,-1.1938321E-2,-1.3875116E-1,-4.370584E-2,-4.746563E-3,-5.063924E-2,-1.01051114E-1,-6.2476356E-2],"split_indices":[21,21,21,3,9,21,1,0,44,1,1,0,1,22,9,3,0,0,0,22,3,22,3,1,1,5,10,9,0,0,0,0,0,1,8,5,3,1,1,1,3,22,0,0,32,20,1,0,21,20,3,1,22,1,0,1,32,35,0,22,21,3,0,0,0,0,0,0,0,0,0,0,0,0,0,0,0,0,0,0,0,0,0,0,0,0,0,0,0,0,0,0,0,0,0,0,0,0,0,0,0,0,0,0,0,0,0,0,0,0,0,0,0,0,0,0,0,0,0],"split_type":[0,0,0,0,0,0,0,0,0,0,0,0,0,0,0,0,0,0,0,0,0,0,0,0,0,0,0,0,0,0,0,0,0,0,0,0,0,0,0,0,0,0,0,0,0,0,0,0,0,0,0,0,0,0,0,0,0,0,0,0,0,0,0,0,0,0,0,0,0,0,0,0,0,0,0,0,0,0,0,0,0,0,0,0,0,0,0,0,0,0,0,0,0,0,0,0,0,0,0,0,0,0,0,0,0,0,0,0,0,0,0,0,0,0,0,0,0,0,0],"sum_hessian":[1.0068978E4,3.8137168E3,6.2552607E3,1.1962858E3,2.6174312E3,4.7519434E3,1.5033175E3,8.698408E2,3.264449E2,1.5239025E3,1.0935287E3,2.9930698E3,1.7588734E3,1.0685415E3,4.3477597E2,1.5750436E1,8.540904E2,2.5804682E1,3.006402E2,6.4528296E2,8.786195E2,1.0487007E3,4.482802E1,7.0270593E2,2.2903638E3,1.2079653E3,5.50908E2,9.87773E2,8.076852E1,2.552318E2,1.7954417E2,7.5924044E0,8.158031E0,6.2714484E2,2.2694556E2,1.1433686E1,1.43709955E1,1.1744471E2,1.831955E2,2.4577237E2,3.995106E2,8.035916E2,7.502789E1,4.1473718E2,6.3396344E2,1.5614709E1,2.9213306E1,5.1194847E1,6.5151105E2,8.474933E2,1.4428706E3,6.722751E2,5.3569025E2,4.89157E2,6.1751038E1,5.338505E2,4.539225E2,7.3469444E1,7.2990727E0,1.6139042E1,2.3909276E2,1.7365997E2,5.8842015E0,1.1838716E2,5.087577E2,2.0664697E2,2.029858E1,5.0851135E0,6.348573E0,9.301381E0,5.0696144E0,4.7836937E1,6.960777E1,1.758389E2,7.3565907E0,9.747263E0,2.3602512E2,8.634031E1,3.131703E2,7.197394E2,8.385225E1,7.773288E0,6.72546E1,3.8672478E1,3.760647E2,5.1336166E1,5.826273E2,8.88467E0,6.730039E0,1.6904379E1,1.23089285E1,3.1427423E1,1.9767424E1,5.4406384E2,1.0744721E2,5.255048E2,3.2198846E2,4.2594928E2,1.01692126E3,8.0705315E1,5.9156976E2,3.013089E1,5.055594E2,3.063021E2,1.8285492E2,6.3221245E0,5.5428913E1,1.3856708E2,3.9528348E2,1.754956E2,2.7842688E2,6.7513336E1,5.956108E0,1.0421442E1,5.717601E0,2.5653303E1,2.1343945E2,5.5466362E1,1.181936E2],"tree_param":{"num_deleted":"0","num_feature":"46","num_nodes":"119","size_leaf_vector":"1"}},{"base_weights":[-1.0282334E-3,3.07587E-1,-1.8355158E-1,5.477969E-1,1.9998716E-1,-1.06853664E-1,-4.330603E-1,4.8223028E-1,7.0025873E-1,8.123721E-3,2.3362032E-1,7.335033E-3,-1.6455814E-1,-3.595595E-1,-6.044234E-1,5.760405E-1,3.7980607E-1,6.561122E-1,8.9580995E-1,5.2677013E-2,-2.643693E-1,2.9869103E-1,1.6594441E-1,-9.068834E-3,3.9531767E-1,-8.9166276E-2,-2.301893E-1,-3.079473E-1,-4.936228E-1,-4.9375182E-1,-8.5097575E-1,1.3773116E-1,6.0601693E-1,4.0392515E-1,-4.5639086E-1,6.714072E-1,1.110957E-2,5.246687E-1,9.825376E-2,9.017463E-2,-3.2070255E-1,-1.0589554E-1,-1.4053023E-1,2.6130685E-1,4.941213E-1,1.7558351E-1,-2.648743E-1,6.6712104E-2,-9.451091E-2,5.153846E-1,-8.362387E-2,-1.350447E-1,6.340571E-2,-3.016168E-1,-1.5055756E-1,6.6921644E-2,-3.1849575E-1,-5.9873986E-1,-3.3998948E-1,-5.18695E-1,1.729116E-1,-9.0743107E-1,-2.1901244E-1,5.708466E-2,-1.2329946E-2,5.706506E-2,7.8219496E-2,2.6237918E-2,5.4015424E-2,-1.1095182E-1,2.9128063E-2,6.2501095E-2,8.385267E-2,7.3920384E-2,1.7411696E-2,1.1940311E-2,-5.6719985E-2,-9.42895E-2,2.0165982E-2,-3.9950255E-2,3.527118E-2,3.0500188E-2,2.5414953E-3,2.4573421E-2,6.6089995E-2,1.935125E-2,-4.1230684E-3,-5.5719215E-2,2.6748119E-2,3.8009192E-4,1.7067911E-2,-3.375082E-2,-4.909561E-3,6.444244E-2,2.6024211E-2,2.7387872E-2,-3.5337545E-2,-1.5453253E-3,-1.7476166E-2,-2.9153315E-2,1.2028806E-2,-4.1887645E-2,-2.312966E-2,-2.8945122E-2,-7.783761E-3,-3.5060424E-2,-6.451758E-4,-5.2398592E-2,-9.644394E-2,-5.6422807E-2,-3.7273031E-3,-5.4330684E-2,1.237634E-3,-1.1244808E-2,4.1359335E-2,-1.2328378E-1,-8.018543E-2,-6.433203E-2,2.017078E-2],"categories":[],"categories_nodes":[],"categories_segments":[],"categories_sizes":[],"default_left":[0,0,0,0,0,0,0,0,0,0,0,0,0,0,0,0,0,0,0,0,0,0,0,0,0,0,0,0,0,0,0,0,0,0,0,0,0,0,0,0,0,0,0,0,0,0,0,0,0,0,0,0,0,0,0,0,0,0,0,0,0,0,0,0,0,0,0,0,0,0,0,0,0,0,0,0,0,0,0,0,0,0,0,0,0,0,0,0,0,0,0,0,0,0,0,0,0,0,0,0,0,0,0,0,0,0,0,0,0,0,0,0,0,0,0,0,0,0,0],"id":8,"left_children":[1,3,5,7,9,11,13,15,17,19,21,23,25,27,29,31,33,35,37,39,41,43,45,47,49,51,53,55,57,59,61,63,65,67,69,71,-1,73,-1,75,77,-1,79,81,83,85,87,89,91,93,95,97,99,101,103,-1,105,107,109,111,113,115,117,-1,-1,-1,-1,-1,-1,-1,-1,-1,-1,-1,-1,-1,-1,-1,-1,-1,-1,-1,-1,-1,-1,-1,-1,-1,-1,-1,-1,-1,-1,-1,-1,-1,-1,-1,-1,-1,-1,-1,-1,-1,-1,-1,-1,-1,-1,-1,-1,-1,-1,-1,-1,-1,-1,-1,-1],"loss_changes":[5.668098E2,9.654419E1,1.2095331E2,1.122113E1,1.6674026E1,3.1876888E1,1.8503204E1,7.5811768E0,2.39505E0,4.705932E0,9.633102E0,1.0345292E1,1.5880737E1,7.0623016E0,1.171347E1,5.4581757E0,8.070339E0,2.3063354E0,1.4447021E0,4.691209E0,5.21169E0,8.051392E0,4.5316315E0,1.0107046E1,3.8348217E0,1.0488868E1,9.722977E0,8.000198E0,4.4501038E0,5.232834E0,4.667099E0,3.269098E0,2.011551E0,7.1968346E0,5.9054694E0,1.6285172E0,0E0,9.0018296E-1,0E0,5.897087E0,1.0138659E1,0E0,6.308484E0,9.7020035E0,7.239254E0,4.1168556E0,3.8892462E0,5.4105997E0,8.080037E0,1.5726385E0,1.4543282E0,5.4663296E0,7.0372148E0,7.360054E0,8.199751E0,0E0,7.4929657E0,4.136078E0,8.082542E0,3.906868E0,8.641429E-1,3.301773E0,2.3616574E0,0E0,0E0,0E0,0E0,0E0,0E0,0E0,0E0,0E0,0E0,0E0,0E0,0E0,0E0,0E0,0E0,0E0,0E0,0E0,0E0,0E0,0E0,0E0,0E0,0E0,0E0,0E0,0E0,0E0,0E0,0E0,0E0,0E0,0E0,0E0,0E0,0E0,0E0,0E0,0E0,0E0,0E0,0E0,0E0,0E0,0E0,0E0,0E0,0E0,0E0,0E0,0E0,0E0,0E0,0E0,0E0],"parents":[2147483647,0,0,1,1,2,2,3,3,4,4,5,5,6,6,7,7,8,8,9,9,10,10,11,11,12,12,13,13,14,14,15,15,16,16,17,17,18,18,19,19,20,20,21,21,22,22,23,23,24,24,25,25,26,26,27,27,28,28,29,29,30,30,31,31,32,32,33,33,34,34,35,35,37,37,39,39,40,40,42,42,43,43,44,44,45,45,46,46,47,47,48,48,49,49,50,50,51,51,52,52,53,53,54,54,56,56,57,57,58,58,59,59,60,60,61,61,62,62],"right_children":[2,4,6,8,10,12,14,16,18,20,22,24,26,28,30,32,34,36,38,40,42,44,46,48,50,52,54,56,58,60,62,64,66,68,70,72,-1,74,-1,76,78,-1,80,82,84,86,88,90,92,94,96,98,100,102,104,-1,106,108,110,112,114,116,118,-1,-1,-1,-1,-1,-1,-1,-1,-1,-1,-1,-1,-1,-1,-1,-1,-1,-1,-1,-1,-1,-1,-1,-1,-1,-1,-1,-1,-1,-1,-1,-1,-1,-1,-1,-1,-1,-1,-1,-1,-1,-1,-1,-1,-1,-1,-1,-1,-1,-1,-1,-1,-1,-1,-1,-1],"split_conditions":[-5.292319E-1,-1.0257903E0,1.2020556E-1,2.8039408E-1,-5.8751595E-1,-2.2662611E-1,5.4015505E-1,-1.3254687E-1,1E0,1E0,-1.1415544E-1,1.6634583E0,-4.866963E-1,1.1316917E0,6.9349074E-1,-6.713921E-1,1E0,7.297283E-1,-1.1025161E-1,8.5563886E-1,-8.4241617E-1,7.042363E-1,1.373461E0,-1.9964087E-1,-4.3246865E-1,4.1516446E-2,1E0,-8.8703114E-1,1E0,1E0,3.4505257E-1,-7.797837E-1,1E0,6.485887E-1,2.0274305E-1,1.7109652E0,1.110957E-2,7.6521015E-1,9.825376E-2,-9.8769444E-1,1.0211617E0,-1.0589554E-1,1.9328451E-1,-2.5573698E-1,-2.6201966E-1,1E0,1E0,1E0,-5.00368E-1,2.9349852E0,-5.655558E-1,3.2268643E-2,-6.639563E-1,-7.1732384E-1,-3.2190812E-1,6.6921644E-2,1E0,4.8116145E-1,-5.421826E-2,1E0,-3.7395892E-1,8.218362E-2,1.1415983E0,5.708466E-2,-1.2329946E-2,5.706506E-2,7.8219496E-2,2.6237918E-2,5.4015424E-2,-1.1095182E-1,2.9128063E-2,6.2501095E-2,8.385267E-2,7.3920384E-2,1.7411696E-2,1.1940311E-2,-5.6719985E-2,-9.42895E-2,2.0165982E-2,-3.9950255E-2,3.527118E-2,3.0500188E-2,2.5414953E-3,2.4573421E-2,6.6089995E-2,1.935125E-2,-4.1230684E-3,-5.5719215E-2,2.6748119E-2,3.8009192E-4,1.7067911E-2,-3.375082E-2,-4.909561E-3,6.444244E-2,2.6024211E-2,2.7387872E-2,-3.5337545E-2,-1.5453253E-3,-1.7476166E-2,-2.9153315E-2,1.2028806E-2,-4.1887645E-2,-2.312966E-2,-2.8945122E-2,-7.783761E-3,-3.5060424E-2,-6.451758E-4,-5.2398592E-2,-9.644394E-2,-5.6422807E-2,-3.7273031E-3,-5.4330684E-2,1.237634E-3,-1.1244808E-2,4.1359335E-2,-1.2328378E-1,-8.018543E-2,-6.433203E-2,2.017078E-2],"split_indices":[21,21,21,0,0,1,1,1,10,10,1,0,21,21,21,0,15,1,2,1,0,0,0,22,1,2,5,0,20,18,2,1,10,2,1,2,0,0,0,21,1,0,2,22,2,11,20,20,0,0,2,1,0,2,0,0,8,0,0,13,0,22,21,0,0,0,0,0,0,0,0,0,0,0,0,0,0,0,0,0,0,0,0,0,0,0,0,0,0,0,0,0,0,0,0,0,0,0,0,0,0,0,0,0,0,0,0,0,0,0,0,0,0,0,0,0,0,0,0],"split_type":[0,0,0,0,0,0,0,0,0,0,0,0,0,0,0,0,0,0,0,0,0,0,0,0,0,0,0,0,0,0,0,0,0,0,0,0,0,0,0,0,0,0,0,0,0,0,0,0,0,0,0,0,0,0,0,0,0,0,0,0,0,0,0,0,0,0,0,0,0,0,0,0,0,0,0,0,0,0,0,0,0,0,0,0,0,0,0,0,0,0,0,0,0,0,0,0,0,0,0,0,0,0,0,0,0,0,0,0,0,0,0,0,0,0,0,0,0,0,0],"sum_hessian":[1.0060397E4,3.738522E3,6.3218755E3,1.1552987E3,2.5832231E3,4.8365645E3,1.4853112E3,8.1078235E2,3.445164E2,3.8547678E2,2.1977466E3,1.6239261E3,3.2126384E3,1.0416339E3,4.4367737E2,4.2077277E2,3.9000955E2,2.846179E2,5.98985E1,3.3200052E2,5.3476234E1,1.1186986E3,1.0790479E3,1.5589889E3,6.493726E1,1.4962377E3,1.7164006E3,7.544715E2,2.8716238E2,3.0829398E2,1.3538338E2,2.7293077E1,3.9347968E2,3.7957806E2,1.0431511E1,2.7662302E2,7.994881E0,1.2681031E1,4.721747E1,3.0239066E2,2.9609882E1,6.1924806E0,4.7283752E1,9.410254E2,1.7767325E2,1.0560131E3,2.3034695E1,8.263211E2,7.326678E2,5.186022E1,1.3077043E1,1.1504209E3,3.458168E2,9.033409E2,8.1305975E2,7.3906326E0,7.470809E2,1.6878276E2,1.18379616E2,2.9738913E2,1.0904844E1,1.2388081E2,1.1502568E1,9.817118E0,1.7475962E1,3.312275E2,6.2252193E1,1.8759128E2,1.9198679E2,5.309468E0,5.1220427E0,2.2022365E2,5.6399357E1,7.1789055E0,5.5021253E0,2.903015E2,1.2089147E1,1.3146209E1,1.6463675E1,3.1129522E1,1.615423E1,7.9371075E2,1.4731464E2,7.236777E1,1.0530549E2,9.754573E2,8.055583E1,1.4839584E1,8.19511E0,5.154532E2,3.108679E2,1.1435783E2,6.1830994E2,3.342805E1,1.843217E1,5.617222E0,7.459821E0,2.871562E2,8.6326465E2,4.7195778E1,2.9862103E2,3.367875E2,5.665534E2,2.7837973E2,5.3468005E2,6.772681E2,6.98127E1,1.4215683E2,2.6625933E1,6.750851E1,5.0871105E1,2.841954E2,1.3193724E1,5.233106E0,5.671738E0,2.7731173E1,9.614964E1,5.4634438E0,6.0391245E0],"tree_param":{"num_deleted":"0","num_feature":"46","num_nodes":"119","size_leaf_vector":"1"}},{"base_weights":[1.679528E-3,2.790453E-1,-1.5665054E-1,5.1370627E-1,1.7702474E-1,-2.5880825E-2,-2.7355516E-1,4.6525434E-1,6.5321696E-1,1.3464864E-1,2.8860515E-1,6.994923E-2,-7.6889746E-2,-2.3672633E-1,-5.183362E-1,4.9414912E-1,2.1393621E-1,6.8765444E-1,3.130422E-1,1.4159015E-1,-1.0359456E-1,3.6806715E-1,1.6473359E-1,5.331048E-2,4.4096348E-1,-1.4852963E-1,5.4568634E-3,-1.803386E-1,-3.551855E-1,-5.343344E-1,3.097859E-2,7.675619E-1,4.7239542E-1,2.8807998E-1,-4.680127E-2,7.073868E-1,1.7780198E-2,-3.9353617E-2,7.145063E-2,1.7602779E-1,6.260951E-2,3.7733716E-1,-3.2574788E-2,2.4251944E-1,-4.7485065E-1,-1.1899303E-1,7.705393E-2,-4.2064294E-2,5.6685805E-1,-1.1881896E-1,-4.1854224E-1,-6.449621E-2,8.921819E-2,1.0189546E-1,-2.0769699E-1,-4.304866E-1,-2.6814157E-1,-4.980055E-1,-7.7729976E-1,8.20389E-2,3.9600458E-2,2.1578023E-2,4.9827024E-2,-4.6051934E-2,3.8431596E-2,6.583388E-2,9.170558E-2,4.268716E-2,-5.6396652E-2,2.1184634E-2,-8.100207E-3,8.200064E-3,-5.7085443E-2,3.429626E-2,5.6839395E-2,-1.8939918E-2,2.9271355E-2,-5.862116E-3,-9.680975E-2,-4.1460935E-2,7.789386E-3,7.113053E-3,8.622795E-2,3.3161055E-2,7.589342E-2,-9.776853E-3,-4.2723067E-2,-5.884225E-2,-5.9635844E-3,1.4210733E-3,-1.8942682E-2,-2.9168159E-2,1.7010806E-2,3.9575446E-2,4.5552994E-3,-3.376511E-2,-1.6100092E-2,-4.63739E-2,3.3620398E-3,-7.401932E-3,-3.686094E-2,-5.3213883E-2,-8.57219E-3,-1.2306172E-1,-5.8873385E-2],"categories":[],"categories_nodes":[],"categories_segments":[],"categories_sizes":[],"default_left":[0,0,0,0,0,0,0,0,0,0,0,0,0,0,0,0,0,0,0,0,0,0,0,0,0,0,0,0,0,0,0,0,0,0,0,0,0,0,0,0,0,0,0,0,0,0,0,0,0,0,0,0,0,0,0,0,0,0,0,0,0,0,0,0,0,0,0,0,0,0,0,0,0,0,0,0,0,0,0,0,0,0,0,0,0,0,0,0,0,0,0,0,0,0,0,0,0,0,0,0,0,0,0,0,0],"id":9,"left_children":[1,3,5,7,9,11,13,15,17,19,21,23,25,27,29,31,33,35,37,39,-1,41,43,45,47,49,51,53,55,57,-1,59,61,63,-1,65,-1,67,-1,69,71,73,-1,75,77,79,81,-1,83,85,87,89,91,93,95,97,99,101,103,-1,-1,-1,-1,-1,-1,-1,-1,-1,-1,-1,-1,-1,-1,-1,-1,-1,-1,-1,-1,-1,-1,-1,-1,-1,-1,-1,-1,-1,-1,-1,-1,-1,-1,-1,-1,-1,-1,-1,-1,-1,-1,-1,-1,-1,-1],"loss_changes":[4.4040805E2,8.7155426E1,9.759244E1,7.1571045E0,1.1978531E1,1.4740933E1,3.0264297E1,5.868744E0,3.08889E0,1.5129513E1,6.8165703E0,6.4442215E0,1.1609545E1,1.9518875E1,5.994583E0,4.0216064E0,4.513549E0,2.442543E0,3.9560106E0,4.9769897E0,0E0,2.8552895E0,1.3789272E1,4.116107E0,5.1014404E0,8.392525E0,5.375628E0,1.5373657E1,6.074936E0,3.426094E0,0E0,7.100334E-1,4.443451E0,5.84868E0,0E0,1.920311E0,0E0,4.0889316E0,0E0,1.17692375E1,6.905757E0,2.56139E0,0E0,5.3824263E0,6.131302E0,7.1315203E0,4.045229E0,0E0,1.5350704E0,6.122143E0,6.3010445E0,4.918888E0,1.2912773E1,2.9021492E0,1.0947037E1,7.804901E0,8.568035E0,5.282234E0,3.926464E0,0E0,0E0,0E0,0E0,0E0,0E0,0E0,0E0,0E0,0E0,0E0,0E0,0E0,0E0,0E0,0E0,0E0,0E0,0E0,0E0,0E0,0E0,0E0,0E0,0E0,0E0,0E0,0E0,0E0,0E0,0E0,0E0,0E0,0E0,0E0,0E0,0E0,0E0,0E0,0E0,0E0,0E0,0E0,0E0,0E0,0E0],"parents":[2147483647,0,0,1,1,2,2,3,3,4,4,5,5,6,6,7,7,8,8,9,9,10,10,11,11,12,12,13,13,14,14,15,15,16,16,17,17,18,18,19,19,21,21,22,22,23,23,24,24,25,25,26,26,27,27,28,28,29,29,31,31,32,32,33,33,35,35,37,37,39,39,40,40,41,41,43,43,44,44,45,45,46,46,48,48,49,49,50,50,51,51,52,52,53,53,54,54,55,55,56,56,57,57,58,58],"right_children":[2,4,6,8,10,12,14,16,18,20,22,24,26,28,30,32,34,36,38,40,-1,42,44,46,48,50,52,54,56,58,-1,60,62,64,-1,66,-1,68,-1,70,72,74,-1,76,78,80,82,-1,84,86,88,90,92,94,96,98,100,102,104,-1,-1,-1,-1,-1,-1,-1,-1,-1,-1,-1,-1,-1,-1,-1,-1,-1,-1,-1,-1,-1,-1,-1,-1,-1,-1,-1,-1,-1,-1,-1,-1,-1,-1,-1,-1,-1,-1,-1,-1,-1,-1,-1,-1,-1,-1],"split_conditions":[-5.292319E-1,-1.0264282E0,-4.667196E-1,3.4136787E-1,1.2424165E-1,-2.2662611E-1,1.0959082E0,5.7057166E-1,1E0,1E0,-1.1415544E-1,1E0,1E0,4.5244208E-1,1.5221776E0,-9.6794224E-1,1.8372828E-1,1.223243E0,8.6782455E-1,2.855045E-1,-1.0359456E-1,-9.7353303E-1,1E0,-6.2885916E-1,-5.013074E-1,1E0,-9.883323E-2,-6.515406E-1,8.5563886E-1,9.589138E-1,3.097859E-2,1E0,-5.3232133E-1,-4.1378775E-1,-4.680127E-2,1E0,1.7780198E-2,6.277365E-1,7.145063E-2,-1.3852938E-1,1E0,9.5212483E-1,-3.2574788E-2,-5.6859057E-2,5.852631E-1,-7.1732384E-1,-4.7259423E-1,-4.2064294E-2,1E0,1.1088747E0,5.4015505E-1,-5.1963013E-1,-8.690919E-1,-1.02086E0,-4.5301667E-1,1E0,7.141417E-2,1E0,8.218362E-2,8.20389E-2,3.9600458E-2,2.1578023E-2,4.9827024E-2,-4.6051934E-2,3.8431596E-2,6.583388E-2,9.170558E-2,4.268716E-2,-5.6396652E-2,2.1184634E-2,-8.100207E-3,8.200064E-3,-5.7085443E-2,3.429626E-2,5.6839395E-2,-1.8939918E-2,2.9271355E-2,-5.862116E-3,-9.680975E-2,-4.1460935E-2,7.789386E-3,7.113053E-3,8.622795E-2,3.3161055E-2,7.589342E-2,-9.776853E-3,-4.2723067E-2,-5.884225E-2,-5.9635844E-3,1.4210733E-3,-1.8942682E-2,-2.9168159E-2,1.7010806E-2,3.9575446E-2,4.5552994E-3,-3.376511E-2,-1.6100092E-2,-4.63739E-2,3.3620398E-3,-7.401932E-3,-3.686094E-2,-5.3213883E-2,-8.57219E-3,-1.2306172E-1,-5.8873385E-2],"split_indices":[21,21,21,0,0,1,21,1,8,41,1,13,5,1,0,1,0,22,0,1,0,21,19,0,22,16,0,22,1,1,0,8,22,2,0,10,0,0,0,22,14,2,0,1,0,2,21,0,5,1,1,21,2,2,0,39,21,16,22,0,0,0,0,0,0,0,0,0,0,0,0,0,0,0,0,0,0,0,0,0,0,0,0,0,0,0,0,0,0,0,0,0,0,0,0,0,0,0,0,0,0,0,0,0,0],"split_type":[0,0,0,0,0,0,0,0,0,0,0,0,0,0,0,0,0,0,0,0,0,0,0,0,0,0,0,0,0,0,0,0,0,0,0,0,0,0,0,0,0,0,0,0,0,0,0,0,0,0,0,0,0,0,0,0,0,0,0,0,0,0,0,0,0,0,0,0,0,0,0,0,0,0,0,0,0,0,0,0,0,0,0,0,0,0,0,0,0,0,0,0,0,0,0,0,0,0,0,0,0,0,0,0,0],"sum_hessian":[1.0026573E4,3.6433384E3,6.3832354E3,1.1027743E3,2.540564E3,3.0135232E3,3.369712E3,8.217248E2,2.8104956E2,1.84288E3,6.9768396E2,1.0467087E3,1.9668146E3,2.9307322E3,4.3897974E2,7.3612415E2,8.560062E1,2.5428555E2,2.6764006E1,1.8328901E3,9.98984E0,4.2383072E2,2.7385324E2,1.0028767E3,4.383198E1,1.051354E3,9.154605E2,1.9872869E3,9.434453E2,4.31008E2,7.971733E0,5.172545E1,6.8439874E2,7.7727394E1,7.8732214E0,2.4443787E2,9.847686E0,1.4733371E1,1.2030635E1,1.275507E3,5.573832E2,4.1869275E2,5.1379833E0,2.4471231E2,2.9140942E1,1.2097356E2,8.8190314E2,5.289575E0,3.8542408E1,9.484337E2,1.0292032E2,4.989738E2,4.1648676E2,1.753739E2,1.811913E3,5.0372824E2,4.3971707E2,3.775981E2,5.340989E1,4.4229095E1,7.49635E0,6.3543297E1,6.208554E2,8.4228115E0,6.930458E1,2.0145197E2,4.2985905E1,7.899431E0,6.8339396E0,1.1196528E3,1.558541E2,5.416725E2,1.571073E1,3.5721793E2,6.147483E1,2.5188948E1,2.1952336E2,1.6411142E1,1.2729799E1,4.791925E1,7.3054306E1,8.763827E2,5.520461E0,1.8549786E1,1.999262E1,8.89068E2,5.9365715E1,6.942166E1,3.349866E1,3.066616E2,1.9231216E2,7.249786E1,3.439889E2,2.724599E1,1.481279E2,4.7731784E2,1.3345951E3,4.7005075E2,3.367749E1,1.5055464E2,2.8916245E2,3.4845825E2,2.9139866E1,1.406678E1,3.9343105E1],"tree_param":{"num_deleted":"0","num_feature":"46","num_nodes":"105","size_leaf_vector":"1"}},{"base_weights":[-6.079173E-4,2.7112693E-1,-1.4726916E-1,4.8216426E-1,1.804385E-1,-6.983328E-2,-2.9039112E-1,3.8879687E-1,5.6632304E-1,-1.5876869E-2,2.1462016E-1,1.3402474E-2,-1.3307123E-1,-2.4754028E-1,-4.561008E-1,-6.6407253E-3,4.1044104E-1,5.117331E-1,7.76883E-1,-4.608798E-2,6.4910793E-1,2.446703E-1,8.232598E-2,3.5205696E-2,-2.794223E-1,-5.865013E-2,-2.2892104E-1,-3.468512E-1,-1.875105E-1,-4.8627728E-1,-3.498776E-2,4.1386032E-1,-4.306671E-1,2.9890555E-1,5.1491916E-1,5.424694E-1,2.0955099E-1,8.390557E-1,-7.968572E-3,-1.0288722E-2,-3.233116E-1,9.988799E-2,3.239068E-2,2.2455458E-1,3.8909397E-1,-8.3600216E-2,1.8187512E-1,-7.099961E-2,7.4596465E-2,-3.6093697E-2,-5.5804425E-1,-1.4693451E-1,3.1789687E-2,1.3495836E-1,-2.3776418E-1,-3.1296384E-1,-9.1807735E-1,-2.545926E-1,-1.4160737E-1,-4.3892798E-1,-8.1764746E-1,-4.716732E-1,2.0412196E-1,9.893156E-3,7.879291E-2,-9.401411E-2,3.9551845E-3,8.941888E-2,2.712443E-2,5.50233E-2,8.174776E-3,5.0835278E-2,7.064225E-2,3.762749E-2,-1.8242521E-2,5.744314E-2,9.0392254E-2,3.960521E-3,-2.5981445E-2,9.8842485E-3,-5.320102E-2,7.960373E-3,2.4788596E-2,-2.9668605E-2,4.634609E-2,-5.511557E-4,-5.9706867E-2,4.561871E-2,4.529832E-3,-3.7612405E-2,-4.0236E-4,1.6694222E-2,-1.8579767E-3,-2.099435E-2,4.396833E-2,1.4799784E-2,-6.6603184E-2,-1.6582398E-2,2.1771124E-2,-1.5253918E-3,2.555935E-2,4.775568E-2,-4.335422E-2,-2.8329128E-2,-1.6470669E-2,-4.0201068E-2,-1.88461E-2,-1.2197151E-1,3.5227012E-2,-8.858337E-3,-3.176755E-2,3.4366925E-3,-1.950178E-2,-4.749309E-2,-2.2178186E-2,-1.1606518E-1,-5.2499022E-2,-9.8956116E-2,6.776859E-3,6.253598E-2,-1.3228883E-2],"categories":[],"categories_nodes":[],"categories_segments":[],"categories_sizes":[],"default_left":[0,0,0,0,0,0,0,0,0,0,0,0,0,0,0,0,0,0,0,0,0,0,0,0,0,0,0,0,0,0,0,0,0,0,0,0,0,0,0,0,0,0,0,0,0,0,0,0,0,0,0,0,0,0,0,0,0,0,0,0,0,0,0,0,0,0,0,0,0,0,0,0,0,0,0,0,0,0,0,0,0,0,0,0,0,0,0,0,0,0,0,0,0,0,0,0,0,0,0,0,0,0,0,0,0,0,0,0,0,0,0,0,0,0,0,0,0,0,0,0,0],"id":10,"left_children":[1,3,5,7,9,11,13,15,17,19,21,23,25,27,29,31,33,35,37,39,41,43,45,47,49,51,53,55,57,59,61,63,65,67,69,71,73,75,-1,77,79,-1,-1,81,83,85,87,89,91,93,95,97,99,101,103,105,107,109,111,113,115,117,119,-1,-1,-1,-1,-1,-1,-1,-1,-1,-1,-1,-1,-1,-1,-1,-1,-1,-1,-1,-1,-1,-1,-1,-1,-1,-1,-1,-1,-1,-1,-1,-1,-1,-1,-1,-1,-1,-1,-1,-1,-1,-1,-1,-1,-1,-1,-1,-1,-1,-1,-1,-1,-1,-1,-1,-1,-1,-1],"loss_changes":[3.9774283E2,6.6867645E1,7.181665E1,8.037476E0,1.6433792E1,2.2148365E1,1.6044266E1,4.294037E0,5.9303284E0,7.343303E0,8.270546E0,1.161317E1,1.704242E1,1.0725998E1,5.9088135E0,4.992984E0,5.3857117E0,3.9740067E0,6.0001373E0,3.4617422E0,1.4834337E0,4.848358E0,6.4163485E0,7.0852966E0,8.526032E0,1.0762231E1,3.3938065E0,1.2890244E1,3.4445572E0,6.467247E0,3.4646153E0,1.579313E0,3.375571E0,3.5827198E0,3.6885834E0,1.8718262E0,2.8305092E0,1.2652588E0,0E0,3.8728309E0,3.5676913E0,0E0,0E0,5.0314636E0,1.0660629E1,5.8508453E0,9.065526E0,9.365893E0,1.0629417E1,5.7465324E0,4.5738506E0,4.733427E0,7.019663E0,5.1589255E0,3.3469276E0,7.065624E0,1.4839743E1,4.7679176E0,6.3355207E0,2.8875504E0,4.734455E0,3.340133E0,3.1355662E0,0E0,0E0,0E0,0E0,0E0,0E0,0E0,0E0,0E0,0E0,0E0,0E0,0E0,0E0,0E0,0E0,0E0,0E0,0E0,0E0,0E0,0E0,0E0,0E0,0E0,0E0,0E0,0E0,0E0,0E0,0E0,0E0,0E0,0E0,0E0,0E0,0E0,0E0,0E0,0E0,0E0,0E0,0E0,0E0,0E0,0E0,0E0,0E0,0E0,0E0,0E0,0E0,0E0,0E0,0E0,0E0,0E0,0E0],"parents":[2147483647,0,0,1,1,2,2,3,3,4,4,5,5,6,6,7,7,8,8,9,9,10,10,11,11,12,12,13,13,14,14,15,15,16,16,17,17,18,18,19,19,20,20,21,21,22,22,23,23,24,24,25,25,26,26,27,27,28,28,29,29,30,30,31,31,32,32,33,33,34,34,35,35,36,36,37,37,39,39,40,40,43,43,44,44,45,45,46,46,47,47,48,48,49,49,50,50,51,51,52,52,53,53,54,54,55,55,56,56,57,57,58,58,59,59,60,60,61,61,62,62],"right_children":[2,4,6,8,10,12,14,16,18,20,22,24,26,28,30,32,34,36,38,40,42,44,46,48,50,52,54,56,58,60,62,64,66,68,70,72,74,76,-1,78,80,-1,-1,82,84,86,88,90,92,94,96,98,100,102,104,106,108,110,112,114,116,118,120,-1,-1,-1,-1,-1,-1,-1,-1,-1,-1,-1,-1,-1,-1,-1,-1,-1,-1,-1,-1,-1,-1,-1,-1,-1,-1,-1,-1,-1,-1,-1,-1,-1,-1,-1,-1,-1,-1,-1,-1,-1,-1,-1,-1,-1,-1,-1,-1,-1,-1,-1,-1,-1,-1,-1,-1,-1,-1],"split_conditions":[-9.727718E-1,-1.0264282E0,7.751855E-2,-8.3961576E-2,-5.8751595E-1,-7.029895E-2,7.5499636E-1,-7.531862E-1,1.7109652E0,1E0,4.3263593E-1,1E0,1E0,-7.1732384E-1,1E0,-4.3419167E-2,6.485887E-1,1E0,4.708335E-1,1E0,-2.3935863E-1,9.5212483E-1,-2.6201966E-1,-8.690919E-1,1E0,-2.3862682E-1,-8.572878E-1,1.1774889E0,-3.2190812E-1,9.3840027E-1,-4.0816373E-1,-1.5208849E0,3.2582417E-1,-9.8421156E-1,1E0,1E0,8.0035675E-1,6.993035E-2,-7.968572E-3,1E0,-1.0203141E0,9.988799E-2,3.239068E-2,1E0,-4.5301667E-1,1E0,-1.0171553E0,-5.672905E-1,-5.0418293E-1,4.1516446E-2,-9.1064584E-1,9.5212483E-1,8.0753815E-1,1E0,1E0,1E0,-1.2479915E-1,-6.193413E-1,-3.9214897E-1,1E0,-7.1732384E-1,1E0,-8.3961576E-2,9.893156E-3,7.879291E-2,-9.401411E-2,3.9551845E-3,8.941888E-2,2.712443E-2,5.50233E-2,8.174776E-3,5.0835278E-2,7.064225E-2,3.762749E-2,-1.8242521E-2,5.744314E-2,9.0392254E-2,3.960521E-3,-2.5981445E-2,9.8842485E-3,-5.320102E-2,7.960373E-3,2.4788596E-2,-2.9668605E-2,4.634609E-2,-5.511557E-4,-5.9706867E-2,4.561871E-2,4.529832E-3,-3.7612405E-2,-4.0236E-4,1.6694222E-2,-1.8579767E-3,-2.099435E-2,4.396833E-2,1.4799784E-2,-6.6603184E-2,-1.6582398E-2,2.1771124E-2,-1.5253918E-3,2.555935E-2,4.775568E-2,-4.335422E-2,-2.8329128E-2,-1.6470669E-2,-4.0201068E-2,-1.88461E-2,-1.2197151E-1,3.5227012E-2,-8.858337E-3,-3.176755E-2,3.4366925E-3,-1.950178E-2,-4.749309E-2,-2.2178186E-2,-1.1606518E-1,-5.2499022E-2,-9.8956116E-2,6.776859E-3,6.253598E-2,-1.3228883E-2],"split_indices":[21,21,21,0,0,1,21,0,2,13,1,11,9,2,31,1,2,8,1,11,1,2,2,2,9,0,0,1,0,1,0,21,1,1,11,10,2,0,0,10,21,0,0,44,0,10,21,0,21,2,1,2,1,20,20,5,0,0,1,10,2,9,0,0,0,0,0,0,0,0,0,0,0,0,0,0,0,0,0,0,0,0,0,0,0,0,0,0,0,0,0,0,0,0,0,0,0,0,0,0,0,0,0,0,0,0,0,0,0,0,0,0,0,0,0,0,0,0,0,0,0],"split_type":[0,0,0,0,0,0,0,0,0,0,0,0,0,0,0,0,0,0,0,0,0,0,0,0,0,0,0,0,0,0,0,0,0,0,0,0,0,0,0,0,0,0,0,0,0,0,0,0,0,0,0,0,0,0,0,0,0,0,0,0,0,0,0,0,0,0,0,0,0,0,0,0,0,0,0,0,0,0,0,0,0,0,0,0,0,0,0,0,0,0,0,0,0,0,0,0,0,0,0,0,0,0,0,0,0,0,0,0,0,0,0,0,0,0,0,0,0,0,0,0,0],"sum_hessian":[9.978255E3,3.497401E3,6.480854E3,1.0499012E3,2.4474995E3,4.20645E3,2.274404E3,5.0038455E2,5.4951666E2,3.630325E2,2.084467E3,1.8164155E3,2.3900344E3,1.8090867E3,4.6531744E2,2.6003098E1,4.7438147E2,4.3910446E2,1.104122E2,3.4814645E2,1.4886045E1,1.6979373E3,3.8652975E2,1.6913596E3,1.2505591E2,1.3463184E3,1.0437162E3,6.797526E2,1.129334E3,4.3405856E2,3.12589E1,1.3067859E1,1.2935239E1,2.3130885E2,2.4307262E2,3.9784293E2,4.1261528E1,1.02959496E2,7.4527073E0,3.0924875E2,3.889771E1,6.1739955E0,8.71205E0,1.4925989E3,2.0533844E2,1.4500275E2,2.4152701E2,4.5737738E2,1.2339823E3,6.735893E1,5.769697E1,6.809614E2,6.6535693E2,2.4424604E1,1.01929156E3,6.4314655E2,3.660608E1,4.569738E2,6.723602E2,3.8182446E2,5.22341E1,1.0715885E1,2.0543015E1,7.7812734E0,5.286586E0,5.728807E0,7.2064314E0,8.880029E0,2.2242882E2,2.2450023E2,1.8572382E1,3.3271045E2,6.5132484E1,2.8976616E1,1.2284912E1,2.2209848E1,8.074965E1,2.5841803E2,5.0830715E1,1.3042274E1,2.5855434E1,2.0755205E2,1.2850469E3,1.9796267E1,1.8554218E2,1.2673894E2,1.8263817E1,7.950418E1,1.6202283E2,8.149457E1,3.758828E2,6.1935547E2,6.146268E2,4.974189E1,1.7617044E1,7.6048164E0,5.0092155E1,6.4794183E2,3.3019592E1,5.505608E2,1.14796135E2,1.5340095E1,9.08451E0,6.2619135E2,3.9310025E2,3.736651E2,2.6948148E2,2.9614193E1,6.991886E0,1.26494545E2,3.3047925E2,1.566368E2,5.1572345E2,3.26503E2,5.5321457E1,2.2682972E1,2.9551126E1,5.0414515E0,5.674433E0,8.740124E0,1.180289E1],"tree_param":{"num_deleted":"0","num_feature":"46","num_nodes":"121","size_leaf_vector":"1"}},{"base_weights":[4.090004E-3,2.4334238E-1,-1.2154651E-1,4.5108452E-1,1.5652388E-1,-6.8238996E-2,-2.9536393E-1,7.747446E-2,4.7225103E-1,-2.1536281E-2,1.8720557E-1,-8.975131E-3,-1.5001093E-1,-2.1970505E-1,-3.9195365E-1,-1.2679523E-1,3.4021592E-1,4.9602705E-1,2.1965224E-1,1.9825503E-2,-4.0777645E-1,2.1845736E-1,5.6293413E-2,6.3482784E-2,-8.323354E-2,-2.3260346E-1,-9.021205E-2,-1.6656226E-1,-3.482493E-1,-5.7645716E-2,-4.4094637E-1,9.332031E-2,-3.9645633E-1,1.1132934E-1,5.5462486E-1,4.2336795E-1,5.7184386E-1,3.9553705E-1,-1.010014E-1,3.3029947E-1,-2.414061E-2,-9.09532E-1,8.3072275E-2,1.7578007E-1,2.8118128E-1,3.50431E-2,6.842578E-1,-5.5927716E-2,1.2430893E-1,-1.5084702E-1,1.0291282E-1,-2.1047455E-1,-5.203195E-1,-9.946762E-2,3.905118E-1,-2.136344E-1,3.7045665E-2,-9.2581755E-1,-3.0919132E-1,1.2396829E-1,-3.4732008E-1,-4.1103366E-1,-8.36034E-1,-4.121455E-2,3.794707E-2,-1.6699253E-2,-6.7514546E-2,5.3460516E-2,-3.2703537E-2,1.6859436E-2,8.171322E-2,4.386687E-2,-6.796289E-3,5.9735954E-2,3.4440197E-2,9.569998E-2,3.0657733E-2,8.042574E-3,-5.2868266E-2,3.3564032E-3,5.655111E-2,-4.7692977E-2,2.1676936E-3,-3.0213743E-2,-1.379902E-1,7.484106E-2,-3.3480212E-2,1.234159E-2,2.8702071E-2,2.9240012E-2,-2.9146573E-2,1.090452E-2,-1.0688112E-2,8.913419E-2,2.9706864E-2,1.3804244E-2,-9.294663E-3,7.288646E-3,2.1325445E-2,-1.5951607E-2,9.849887E-2,1.6179126E-2,-1.4055765E-2,-1.7579434E-2,-4.4584077E-2,1.4062293E-2,-6.806675E-2,-8.251782E-3,-3.1410437E-2,-3.8875923E-3,6.512514E-2,-1.9145178E-2,-9.0936735E-2,-3.7643125E-3,4.7439646E-2,-4.389665E-2,-1.1237152E-1,-2.5804609E-2,-6.6506065E-2,9.793553E-4,6.487381E-2,1.4625787E-2,-5.493642E-2,-3.8126867E-2,-7.65402E-2,-9.9401124E-2,-4.7464993E-2],"categories":[],"categories_nodes":[],"categories_segments":[],"categories_sizes":[],"default_left":[0,0,0,0,0,0,0,0,0,0,0,0,0,0,0,0,0,0,0,0,0,0,0,0,0,0,0,0,0,0,0,0,0,0,0,0,0,0,0,0,0,0,0,0,0,0,0,0,0,0,0,0,0,0,0,0,0,0,0,0,0,0,0,0,0,0,0,0,0,0,0,0,0,0,0,0,0,0,0,0,0,0,0,0,0,0,0,0,0,0,0,0,0,0,0,0,0,0,0,0,0,0,0,0,0,0,0,0,0,0,0,0,0,0,0,0,0,0,0,0,0,0,0,0,0,0,0],"id":11,"left_children":[1,3,5,7,9,11,13,15,17,19,21,23,25,27,29,31,33,35,37,39,41,43,45,47,49,51,53,55,57,59,61,63,65,67,69,71,73,75,77,79,81,83,85,87,89,91,93,95,97,99,101,103,105,107,109,111,113,115,117,119,121,123,125,-1,-1,-1,-1,-1,-1,-1,-1,-1,-1,-1,-1,-1,-1,-1,-1,-1,-1,-1,-1,-1,-1,-1,-1,-1,-1,-1,-1,-1,-1,-1,-1,-1,-1,-1,-1,-1,-1,-1,-1,-1,-1,-1,-1,-1,-1,-1,-1,-1,-1,-1,-1,-1,-1,-1,-1,-1,-1,-1,-1,-1,-1,-1,-1],"loss_changes":[2.983496E2,6.156682E1,6.028189E1,7.9247284E0,1.317992E1,2.4141388E1,1.107428E1,3.004327E0,5.6119537E0,5.6855865E0,8.404884E0,1.5552711E1,1.0317898E1,5.8076057E0,1.0940483E1,1.9227235E0,1.1359098E0,4.5495453E0,4.7628403E0,4.402882E0,8.553402E0,4.3956375E0,5.284945E0,1.0633579E1,1.7981625E1,5.4836807E0,5.4486217E0,5.8487034E0,5.358713E0,4.6057024E0,6.555748E0,2.8034508E0,8.124943E-1,2.5971518E0,1.1136935E0,3.3978424E0,2.2479706E0,2.4178686E0,2.4059904E0,2.7732425E0,5.8804917E0,4.470251E0,5.3431506E0,5.7362747E0,4.3940125E0,4.064325E0,7.750087E-1,3.563209E0,4.419298E0,1.0471733E1,5.4835525E0,6.5939064E0,6.673069E0,4.3167543E0,2.6194046E0,7.4672985E0,3.7837217E0,9.8553467E-1,4.1217556E0,3.231688E0,3.4394784E0,5.4532776E0,1.8187809E0,0E0,0E0,0E0,0E0,0E0,0E0,0E0,0E0,0E0,0E0,0E0,0E0,0E0,0E0,0E0,0E0,0E0,0E0,0E0,0E0,0E0,0E0,0E0,0E0,0E0,0E0,0E0,0E0,0E0,0E0,0E0,0E0,0E0,0E0,0E0,0E0,0E0,0E0,0E0,0E0,0E0,0E0,0E0,0E0,0E0,0E0,0E0,0E0,0E0,0E0,0E0,0E0,0E0,0E0,0E0,0E0,0E0,0E0,0E0,0E0,0E0,0E0,0E0,0E0],"parents":[2147483647,0,0,1,1,2,2,3,3,4,4,5,5,6,6,7,7,8,8,9,9,10,10,11,11,12,12,13,13,14,14,15,15,16,16,17,17,18,18,19,19,20,20,21,21,22,22,23,23,24,24,25,25,26,26,27,27,28,28,29,29,30,30,31,31,32,32,33,33,34,34,35,35,36,36,37,37,38,38,39,39,40,40,41,41,42,42,43,43,44,44,45,45,46,46,47,47,48,48,49,49,50,50,51,51,52,52,53,53,54,54,55,55,56,56,57,57,58,58,59,59,60,60,61,61,62,62],"right_children":[2,4,6,8,10,12,14,16,18,20,22,24,26,28,30,32,34,36,38,40,42,44,46,48,50,52,54,56,58,60,62,64,66,68,70,72,74,76,78,80,82,84,86,88,90,92,94,96,98,100,102,104,106,108,110,112,114,116,118,120,122,124,126,-1,-1,-1,-1,-1,-1,-1,-1,-1,-1,-1,-1,-1,-1,-1,-1,-1,-1,-1,-1,-1,-1,-1,-1,-1,-1,-1,-1,-1,-1,-1,-1,-1,-1,-1,-1,-1,-1,-1,-1,-1,-1,-1,-1,-1,-1,-1,-1,-1,-1,-1,-1,-1,-1,-1,-1,-1,-1,-1,-1,-1,-1,-1,-1],"split_conditions":[-9.8769444E-1,-1.0264282E0,5.233583E-1,-6.713921E-1,-5.8751595E-1,1.8788844E-1,1E0,-1.5208849E0,5.7057166E-1,8.5563886E-1,4.2414758E-1,-1.9964087E-1,1E0,5.811821E-1,-2.5341263E-1,1E0,1.1149327E-1,2.0140037E-2,1E0,-7.493672E-1,1.0211617E0,1E0,1E0,-4.5301667E-1,2.7295822E-1,1E0,1.1355144E0,3.0177385E-1,6.1442816E-1,1.3200678E-1,1.1866225E0,-7.9036534E-1,-7.0857126E-1,-7.3831457E-1,-7.3831457E-1,1E0,1E0,-1.5290089E0,6.4755015E-2,-9.2408574E-1,-8.4241617E-1,-6.7882794E-1,1.1088747E0,1.9680047E-1,1E0,1E0,-1.2479915E-1,-7.797837E-1,1E0,1.8010744E-1,1.2693594E0,1E0,-6.2885916E-1,1E0,1E0,2.6994252E-1,4.8116145E-1,-4.1448417E-1,1E0,1E0,-6.936996E-1,1.1088747E0,4.998354E-1,-4.121455E-2,3.794707E-2,-1.6699253E-2,-6.7514546E-2,5.3460516E-2,-3.2703537E-2,1.6859436E-2,8.171322E-2,4.386687E-2,-6.796289E-3,5.9735954E-2,3.4440197E-2,9.569998E-2,3.0657733E-2,8.042574E-3,-5.2868266E-2,3.3564032E-3,5.655111E-2,-4.7692977E-2,2.1676936E-3,-3.0213743E-2,-1.379902E-1,7.484106E-2,-3.3480212E-2,1.234159E-2,2.8702071E-2,2.9240012E-2,-2.9146573E-2,1.090452E-2,-1.0688112E-2,8.913419E-2,2.9706864E-2,1.3804244E-2,-9.294663E-3,7.288646E-3,2.1325445E-2,-1.5951607E-2,9.849887E-2,1.6179126E-2,-1.4055765E-2,-1.7579434E-2,-4.4584077E-2,1.4062293E-2,-6.806675E-2,-8.251782E-3,-3.1410437E-2,-3.8875923E-3,6.512514E-2,-1.9145178E-2,-9.0936735E-2,-3.7643125E-3,4.7439646E-2,-4.389665E-2,-1.1237152E-1,-2.5804609E-2,-6.6506065E-2,9.793553E-4,6.487381E-2,1.4625787E-2,-5.493642E-2,-3.8126867E-2,-7.65402E-2,-9.9401124E-2,-4.7464993E-2],"split_indices":[21,21,21,0,0,1,9,21,1,1,1,22,25,1,22,20,1,0,31,1,1,20,15,0,0,16,0,1,1,1,21,0,0,0,0,36,8,21,0,1,0,0,1,0,36,9,0,1,20,1,0,10,0,16,32,1,0,0,19,16,0,1,1,0,0,0,0,0,0,0,0,0,0,0,0,0,0,0,0,0,0,0,0,0,0,0,0,0,0,0,0,0,0,0,0,0,0,0,0,0,0,0,0,0,0,0,0,0,0,0,0,0,0,0,0,0,0,0,0,0,0,0,0,0,0,0,0],"split_type":[0,0,0,0,0,0,0,0,0,0,0,0,0,0,0,0,0,0,0,0,0,0,0,0,0,0,0,0,0,0,0,0,0,0,0,0,0,0,0,0,0,0,0,0,0,0,0,0,0,0,0,0,0,0,0,0,0,0,0,0,0,0,0,0,0,0,0,0,0,0,0,0,0,0,0,0,0,0,0,0,0,0,0,0,0,0,0,0,0,0,0,0,0,0,0,0,0,0,0,0,0,0,0,0,0,0,0,0,0,0,0,0,0,0,0,0,0,0,0,0,0,0,0,0,0,0,0],"sum_hessian":[9.923537E3,3.4164944E3,6.5070425E3,1.0057373E3,2.410757E3,4.980868E3,1.526174E3,5.4173893E1,9.515634E2,3.5438623E2,2.0563708E3,2.8885288E3,2.0923396E3,8.576499E2,6.6852405E2,3.0769444E1,2.3404448E1,8.6882135E2,8.274202E1,3.2096347E2,3.342275E1,1.659533E3,3.968379E2,1.4620618E3,1.426467E3,8.77488E2,1.2148516E3,6.0841473E2,2.4923518E2,8.572761E1,5.8279645E2,1.7301075E1,1.3468369E1,1.2054851E1,1.1349598E1,4.4701154E2,4.218098E2,5.328217E1,2.9459852E1,3.90057E1,2.8195776E2,1.6105944E1,1.7316805E1,9.898457E2,6.6968726E2,3.8486972E2,1.1968185E1,4.9344284E2,9.686189E2,1.0465287E3,3.7993832E2,8.164263E2,6.106169E1,1.1926815E3,2.2170095E1,4.94128E2,1.1428673E2,1.4348824E1,2.3488637E2,5.3043526E1,3.2684082E1,5.436744E2,3.912207E1,6.0947647E0,1.120631E1,8.263595E0,5.2047744E0,6.0212817E0,6.0335684E0,5.258683E0,6.0909142E0,4.3361533E2,1.3396232E1,3.7779974E2,4.4010082E1,5.9529424E0,4.7329227E1,2.1255136E1,8.204716E0,1.7752462E1,2.1253237E1,2.5044792E1,2.56913E2,7.745903E0,8.360042E0,6.375214E0,1.094159E1,6.7446497E2,3.1538077E2,6.572994E2,1.2387887E1,2.5311974E2,1.3174997E2,6.949327E0,5.018859E0,7.864309E1,4.1479974E2,6.1492755E2,3.5369138E2,1.0394548E3,7.0738773E0,3.0622052E2,7.37178E1,7.1310077E2,1.03325516E2,1.1945648E1,4.9116043E1,1.1066724E3,8.600915E1,8.697649E0,1.34724455E1,4.800959E2,1.4032108E1,9.839688E1,1.5889847E1,5.0769897E0,9.271833E0,2.0687901E2,2.8007349E1,4.440167E1,8.641858E0,9.573321E0,2.3110762E1,5.0346225E2,4.021213E1,2.6003986E1,1.3118081E1],"tree_param":{"num_deleted":"0","num_feature":"46","num_nodes":"127","size_leaf_vector":"1"}},{"base_weights":[6.8231313E-3,2.231582E-1,-1.0619686E-1,4.3510315E-1,1.42496E-1,-5.805091E-2,-2.4984291E-1,3.3809462E-1,5.5791223E-1,1.01345025E-1,2.1961121E-1,-1.0893108E-1,1.4355907E-2,-2.0960449E-1,-3.424543E-1,-7.719075E-2,3.5840702E-1,5.091292E-1,7.256989E-1,1.09563686E-1,-2.1147159E-1,-4.590774E-5,2.891124E-1,-1.9482651E-1,-7.238054E-2,-1.0011325E-1,7.102963E-2,-2.5811028E-1,-1.3322754E-1,-4.4969258E-1,-2.561361E-1,-4.1044557E-1,3.9387222E-2,2.6086307E-1,4.539837E-1,5.408398E-1,2.0784633E-1,8.0931824E-1,5.7476383E-1,1.2542383E-1,-6.758941E-2,1.5546134E-1,-4.010655E-1,5.5036254E-2,-4.889922E-1,1.9168828E-1,3.4308243E-1,-2.3808102E-1,1.0011849E-1,3.2567137E-1,-7.745758E-2,1.0326002E-2,-1.9489549E-1,5.478577E-2,3.303173E-1,-2.8382975E-1,2.877663E-1,-1.595483E-1,4.8583746E-1,-4.859704E-1,6.6497445E-2,1.8703087E-1,-2.9580095E-1,-5.4986138E-2,-1.6294552E-2,-6.705697E-3,2.897783E-2,4.8612576E-2,1.2391365E-2,4.5465395E-2,6.7562245E-2,-1.6485794E-2,4.258577E-2,8.476575E-2,5.1434916E-2,3.641833E-2,7.223889E-2,1.5060878E-2,2.568271E-4,-1.7224746E-2,2.819106E-2,8.4091045E-2,-3.3431035E-2,-7.25969E-2,1.0622195E-2,-5.8930613E-2,8.756324E-3,-8.686908E-2,3.5606993E-3,2.323831E-2,-3.1045139E-2,3.693456E-2,4.719364E-3,-2.0635812E-2,-5.7109613E-2,-1.0444766E-1,1.7140074E-2,6.204666E-2,-1.3279705E-2,-1.0817264E-2,-6.08758E-4,-1.05090095E-2,1.7603686E-2,-3.627413E-2,-1.3973342E-2,8.524037E-3,-3.9203074E-3,5.491953E-2,1.6790299E-2,-2.5864182E-2,-5.7821214E-2,7.010224E-2,-2.165586E-2,-1.276728E-2,-6.2177833E-2,8.0826186E-2,6.8015355E-4,-4.630927E-2,-1.17008545E-1,-1.4955416E-2,5.6352813E-2,-2.7500836E-2,-9.935968E-2],"categories":[],"categories_nodes":[],"categories_segments":[],"categories_sizes":[],"default_left":[0,0,0,0,0,0,0,0,0,0,0,0,0,0,0,0,0,0,0,0,0,0,0,0,0,0,0,0,0,0,0,0,0,0,0,0,0,0,0,0,0,0,0,0,0,0,0,0,0,0,0,0,0,0,0,0,0,0,0,0,0,0,0,0,0,0,0,0,0,0,0,0,0,0,0,0,0,0,0,0,0,0,0,0,0,0,0,0,0,0,0,0,0,0,0,0,0,0,0,0,0,0,0,0,0,0,0,0,0,0,0,0,0,0,0,0,0,0,0,0,0,0,0],"id":12,"left_children":[1,3,5,7,9,11,13,15,17,19,21,23,25,27,29,31,33,35,37,39,41,43,45,47,49,51,53,55,57,59,61,63,-1,65,67,69,71,73,75,77,79,81,83,85,87,89,91,93,95,97,99,101,103,105,107,109,111,113,115,117,-1,119,121,-1,-1,-1,-1,-1,-1,-1,-1,-1,-1,-1,-1,-1,-1,-1,-1,-1,-1,-1,-1,-1,-1,-1,-1,-1,-1,-1,-1,-1,-1,-1,-1,-1,-1,-1,-1,-1,-1,-1,-1,-1,-1,-1,-1,-1,-1,-1,-1,-1,-1,-1,-1,-1,-1,-1,-1,-1,-1,-1,-1],"loss_changes":[2.4290152E2,5.8219498E1,4.5115646E1,1.1001572E1,7.818493E0,1.8011833E1,6.031563E0,4.475712E0,3.0108337E0,4.169918E0,1.3111771E1,9.000282E0,1.3101462E1,4.2049828E0,4.4621315E0,4.15087E0,4.5699997E0,2.9764175E0,6.792412E-1,4.426136E0,2.9587E0,5.613553E0,3.3647003E0,1.0950668E1,4.098938E0,7.0029573E0,5.670468E0,9.892349E0,7.353406E0,9.187088E0,4.9120235E0,4.4083452E-1,0E0,2.401619E0,2.620224E0,3.08358E0,2.7038293E0,1.9615936E-1,8.4909153E-1,4.4658184E0,4.798135E0,5.284596E0,4.6474295E0,3.977757E0,4.234532E0,4.8711586E0,3.235344E0,7.7761803E0,9.173906E0,3.5394888E0,4.364295E0,5.94449E0,3.2821865E0,3.6448445E0,2.7313032E0,4.8024483E0,6.8083725E0,6.2424917E0,2.845405E0,2.789734E0,0E0,3.0382166E0,3.4117718E0,0E0,0E0,0E0,0E0,0E0,0E0,0E0,0E0,0E0,0E0,0E0,0E0,0E0,0E0,0E0,0E0,0E0,0E0,0E0,0E0,0E0,0E0,0E0,0E0,0E0,0E0,0E0,0E0,0E0,0E0,0E0,0E0,0E0,0E0,0E0,0E0,0E0,0E0,0E0,0E0,0E0,0E0,0E0,0E0,0E0,0E0,0E0,0E0,0E0,0E0,0E0,0E0,0E0,0E0,0E0,0E0,0E0,0E0,0E0,0E0],"parents":[2147483647,0,0,1,1,2,2,3,3,4,4,5,5,6,6,7,7,8,8,9,9,10,10,11,11,12,12,13,13,14,14,15,15,16,16,17,17,18,18,19,19,20,20,21,21,22,22,23,23,24,24,25,25,26,26,27,27,28,28,29,29,30,30,31,31,33,33,34,34,35,35,36,36,37,37,38,38,39,39,40,40,41,41,42,42,43,43,44,44,45,45,46,46,47,47,48,48,49,49,50,50,51,51,52,52,53,53,54,54,55,55,56,56,57,57,58,58,59,59,61,61,62,62],"right_children":[2,4,6,8,10,12,14,16,18,20,22,24,26,28,30,32,34,36,38,40,42,44,46,48,50,52,54,56,58,60,62,64,-1,66,68,70,72,74,76,78,80,82,84,86,88,90,92,94,96,98,100,102,104,106,108,110,112,114,116,118,-1,120,122,-1,-1,-1,-1,-1,-1,-1,-1,-1,-1,-1,-1,-1,-1,-1,-1,-1,-1,-1,-1,-1,-1,-1,-1,-1,-1,-1,-1,-1,-1,-1,-1,-1,-1,-1,-1,-1,-1,-1,-1,-1,-1,-1,-1,-1,-1,-1,-1,-1,-1,-1,-1,-1,-1,-1,-1,-1,-1,-1,-1],"split_conditions":[-5.294155E-1,-1.4552335E0,9.536716E-2,2.0140037E-2,1.9328451E-1,-1.5831986E-1,7.5499636E-1,-7.531862E-1,1.5591971E0,1E0,-4.8235843E-1,1E0,-7.1732384E-1,-4.1378775E-1,-2.7729315E-1,-1.5208849E0,6.485887E-1,1E0,1E0,1E0,-4.1448417E-1,-1.0027246E0,1E0,6.485887E-1,-9.316461E-1,1.5398496E-1,1.5221776E0,6.923136E-1,1E0,1E0,-2.3862682E-1,1.2556609E0,3.9387222E-2,-8.690919E-1,1E0,6.277365E-1,3.0270156E-1,1E0,3.4136787E-1,1E0,4.9883354E-2,1E0,2.0140037E-2,-8.572878E-1,1E0,1E0,1E0,-1.8806319E-1,-6.713921E-1,1E0,-4.0816373E-1,5.2683777E-3,2.8039408E-1,5.5484667E-2,-5.0418293E-1,1E0,-3.633257E-1,1E0,-1.7319153E-1,1E0,6.6497445E-2,1.1415983E0,1E0,-5.4986138E-2,-1.6294552E-2,-6.705697E-3,2.897783E-2,4.8612576E-2,1.2391365E-2,4.5465395E-2,6.7562245E-2,-1.6485794E-2,4.258577E-2,8.476575E-2,5.1434916E-2,3.641833E-2,7.223889E-2,1.5060878E-2,2.568271E-4,-1.7224746E-2,2.819106E-2,8.4091045E-2,-3.3431035E-2,-7.25969E-2,1.0622195E-2,-5.8930613E-2,8.756324E-3,-8.686908E-2,3.5606993E-3,2.323831E-2,-3.1045139E-2,3.693456E-2,4.719364E-3,-2.0635812E-2,-5.7109613E-2,-1.0444766E-1,1.7140074E-2,6.204666E-2,-1.3279705E-2,-1.0817264E-2,-6.08758E-4,-1.05090095E-2,1.7603686E-2,-3.627413E-2,-1.3973342E-2,8.524037E-3,-3.9203074E-3,5.491953E-2,1.6790299E-2,-2.5864182E-2,-5.7821214E-2,7.010224E-2,-2.165586E-2,-1.276728E-2,-6.2177833E-2,8.0826186E-2,6.8015355E-4,-4.630927E-2,-1.17008545E-1,-1.4955416E-2,5.6352813E-2,-2.7500836E-2,-9.935968E-2],"split_indices":[21,21,21,0,2,0,21,0,2,14,0,44,2,2,0,21,2,8,20,11,0,21,44,2,0,0,0,21,18,13,0,2,0,2,19,0,0,16,0,10,0,32,0,0,20,16,34,0,0,20,0,0,0,21,21,16,0,34,0,35,0,21,18,0,0,0,0,0,0,0,0,0,0,0,0,0,0,0,0,0,0,0,0,0,0,0,0,0,0,0,0,0,0,0,0,0,0,0,0,0,0,0,0,0,0,0,0,0,0,0,0,0,0,0,0,0,0,0,0,0,0,0,0],"split_type":[0,0,0,0,0,0,0,0,0,0,0,0,0,0,0,0,0,0,0,0,0,0,0,0,0,0,0,0,0,0,0,0,0,0,0,0,0,0,0,0,0,0,0,0,0,0,0,0,0,0,0,0,0,0,0,0,0,0,0,0,0,0,0,0,0,0,0,0,0,0,0,0,0,0,0,0,0,0,0,0,0,0,0,0,0,0,0,0,0,0,0,0,0,0,0,0,0,0,0,0,0,0,0,0,0,0,0,0,0,0,0,0,0,0,0,0,0,0,0,0,0,0,0],"sum_hessian":[9.932577E3,3.4080837E3,6.524493E3,9.382855E2,2.4697983E3,4.8876875E3,1.6368057E3,5.263039E2,4.1198163E2,1.6119355E3,8.5786273E2,2.8702573E3,2.0174303E3,1.1433142E3,4.9349142E2,2.4411549E1,5.0189233E2,3.2230713E2,8.967451E1,1.5713024E3,4.0633217E1,2.0643335E2,6.514294E2,8.5548895E2,2.0147683E3,6.678154E2,1.349615E3,6.977834E2,4.4553082E2,2.1819952E2,2.752919E2,1.4372421E1,1.0039127E1,2.502355E2,2.5165683E2,2.908948E2,3.1412325E1,5.4898323E1,3.4776188E1,1.4424543E3,1.2884795E2,1.3903989E1,2.6729227E1,1.8632983E2,2.0103516E1,2.3384879E2,4.175806E2,7.462431E2,1.0924586E2,2.4578857E1,1.9901895E3,3.0884436E2,3.5897107E2,1.2711887E3,7.8426186E1,6.668445E2,3.093892E1,4.2807272E2,1.7458075E1,2.118681E2,6.3314133E0,2.231014E1,2.5298177E2,8.4122E0,5.9602213E0,2.0170307E1,2.300652E2,2.2889441E2,2.2762415E1,1.8010265E2,1.1079215E2,1.1683112E1,1.9729214E1,4.692539E1,7.972933E0,1.5760911E1,1.9015276E1,1.1968738E3,2.4558064E2,9.954598E1,2.9301962E1,5.495683E0,8.408305E0,1.6030842E1,1.0698387E1,8.131509E0,1.7819833E2,1.1281899E1,8.821617E0,2.1681471E2,1.7034063E1,3.833097E2,3.42709E1,6.828178E2,6.342533E1,5.6042624E0,1.03641594E2,1.474468E1,9.834177E0,1.3910264E3,5.9916315E2,1.8226457E2,1.2657977E2,8.7413994E1,2.7155707E2,9.601656E2,3.1102313E2,3.2391827E1,4.603436E1,6.160155E2,5.082894E1,1.679042E1,1.41484995E1,4.01651E2,2.6421743E1,1.0023976E1,7.4340987E0,2.0663489E2,5.233223E0,1.2097692E1,1.0212449E1,2.4701543E2,5.966341E0],"tree_param":{"num_deleted":"0","num_feature":"46","num_nodes":"123","size_leaf_vector":"1"}},{"base_weights":[4.7851405E-3,2.2827376E-1,-9.597716E-2,3.9653617E-1,1.5279232E-1,-3.942262E-2,-2.0370013E-1,4.6020848E-1,2.6811364E-1,1.8968108E-1,2.0772597E-2,8.676628E-2,-6.2472336E-2,-1.6806103E-1,-2.9940292E-1,1.509419E-2,4.8356792E-1,-6.2099915E-2,2.919615E-1,1.4355388E-1,2.9818588E-1,-1.2435176E-1,1.2896535E-1,1.1648805E-1,-2.8555956E-1,-1.1836377E-1,4.203939E-3,-2.97483E-1,-1.2834926E-1,-3.8420096E-1,-9.2139095E-2,-2.6224416E-1,5.748196E-1,4.5779875E-1,7.095401E-1,1.38291E-1,3.82385E-1,1.6881494E-1,-4.0612498E-1,2.823384E-1,8.288607E-2,-3.6037228E-1,-4.1252177E-2,4.325128E-1,8.061228E-2,9.762631E-2,5.1081455E-1,-5.1454026E-1,6.2151648E-2,-7.878863E-2,-1.6475308E-1,1.8392215E-2,-4.4095832E-1,-3.7506622E-1,-3.5701126E-2,-9.526264E-2,-2.778702E-1,-8.4771836E-1,-3.4328103E-1,-7.6714955E-2,-6.8706416E-2,1.2714262E-2,-9.480372E-2,7.875527E-2,2.65614E-2,4.314029E-2,7.2230764E-2,3.107371E-2,7.9016134E-2,-6.541996E-2,2.2706077E-2,-5.294621E-2,4.2091366E-2,7.49886E-3,2.906481E-2,-8.093991E-2,-1.775679E-2,2.6840264E-2,8.5360184E-2,-1.294262E-1,-2.1162465E-2,6.8870716E-2,-8.594467E-3,-8.029733E-3,5.4139633E-2,3.203839E-3,4.549424E-2,1.7649569E-2,-4.726632E-4,-8.384197E-3,7.656813E-2,-9.891492E-3,-7.020488E-2,7.025202E-2,-1.9080587E-2,-1.1202703E-2,6.044712E-3,-1.9417103E-2,1.15946345E-2,-3.1511206E-3,1.050501E-2,-6.172327E-2,2.565307E-2,-2.5751581E-2,-5.4412264E-2,-1.0821261E-2,4.8870843E-2,-1.655165E-2,-2.5169493E-3,6.6156E-2,-3.0516732E-2,-1.208443E-2,-1.20445386E-1,2.8225768E-2,-3.6187436E-2,2.6967937E-2,-1.1189806E-2],"categories":[],"categories_nodes":[],"categories_segments":[],"categories_sizes":[],"default_left":[0,0,0,0,0,0,0,0,0,0,0,0,0,0,0,0,0,0,0,0,0,0,0,0,0,0,0,0,0,0,0,0,0,0,0,0,0,0,0,0,0,0,0,0,0,0,0,0,0,0,0,0,0,0,0,0,0,0,0,0,0,0,0,0,0,0,0,0,0,0,0,0,0,0,0,0,0,0,0,0,0,0,0,0,0,0,0,0,0,0,0,0,0,0,0,0,0,0,0,0,0,0,0,0,0,0,0,0,0,0,0,0,0,0,0,0,0],"id":13,"left_children":[1,3,5,7,9,11,13,15,17,19,21,23,25,27,29,31,33,-1,35,37,39,41,43,45,47,49,51,53,55,57,59,61,63,65,67,69,71,73,75,77,-1,79,81,83,85,87,89,91,93,95,97,99,101,103,105,107,109,111,113,-1,115,-1,-1,-1,-1,-1,-1,-1,-1,-1,-1,-1,-1,-1,-1,-1,-1,-1,-1,-1,-1,-1,-1,-1,-1,-1,-1,-1,-1,-1,-1,-1,-1,-1,-1,-1,-1,-1,-1,-1,-1,-1,-1,-1,-1,-1,-1,-1,-1,-1,-1,-1,-1,-1,-1,-1,-1],"loss_changes":[2.2217482E2,3.8878403E1,4.141991E1,7.6349487E0,1.0311249E1,1.2978865E1,7.933563E0,6.573532E0,6.9004536E0,8.242447E0,7.2968283E0,7.661333E0,1.405748E1,8.739731E0,1.1105484E1,5.2099857E0,3.1767578E0,0E0,4.2448635E0,1.6224422E1,3.9110146E0,3.8795054E0,3.871459E0,4.7032967E0,4.112296E0,3.754219E0,1.08782835E1,8.115623E0,6.4476433E0,8.235184E0,2.879175E0,6.1234884E0,5.217099E-1,3.4767227E0,1.6750774E0,8.319062E0,7.0437737E0,1.2702154E1,4.595213E0,3.5929909E0,0E0,6.8907013E0,4.886936E0,2.0726104E0,4.182057E0,4.934181E0,4.449771E0,2.3470526E0,3.5747378E0,5.1403365E0,7.8156776E0,7.2202134E0,6.699085E0,5.993412E0,3.5743442E0,5.279932E0,6.2690296E0,9.133551E0,4.92593E0,0E0,2.6644464E0,0E0,0E0,0E0,0E0,0E0,0E0,0E0,0E0,0E0,0E0,0E0,0E0,0E0,0E0,0E0,0E0,0E0,0E0,0E0,0E0,0E0,0E0,0E0,0E0,0E0,0E0,0E0,0E0,0E0,0E0,0E0,0E0,0E0,0E0,0E0,0E0,0E0,0E0,0E0,0E0,0E0,0E0,0E0,0E0,0E0,0E0,0E0,0E0,0E0,0E0,0E0,0E0,0E0,0E0,0E0,0E0],"parents":[2147483647,0,0,1,1,2,2,3,3,4,4,5,5,6,6,7,7,8,8,9,9,10,10,11,11,12,12,13,13,14,14,15,15,16,16,18,18,19,19,20,20,21,21,22,22,23,23,24,24,25,25,26,26,27,27,28,28,29,29,30,30,31,31,32,32,33,33,34,34,35,35,36,36,37,37,38,38,39,39,41,41,42,42,43,43,44,44,45,45,46,46,47,47,48,48,49,49,50,50,51,51,52,52,53,53,54,54,55,55,56,56,57,57,58,58,60,60],"right_children":[2,4,6,8,10,12,14,16,18,20,22,24,26,28,30,32,34,-1,36,38,40,42,44,46,48,50,52,54,56,58,60,62,64,66,68,70,72,74,76,78,-1,80,82,84,86,88,90,92,94,96,98,100,102,104,106,108,110,112,114,-1,116,-1,-1,-1,-1,-1,-1,-1,-1,-1,-1,-1,-1,-1,-1,-1,-1,-1,-1,-1,-1,-1,-1,-1,-1,-1,-1,-1,-1,-1,-1,-1,-1,-1,-1,-1,-1,-1,-1,-1,-1,-1,-1,-1,-1,-1,-1,-1,-1,-1,-1,-1,-1,-1,-1,-1,-1],"split_conditions":[-1.0027246E0,-1.023237E0,7.751855E-2,3.2268643E-2,3.9868253E-1,-5.8738106E-1,5.811821E-1,